digraph Tree {
node [shape=box, style="filled, rounded", color="black", fontname="helvetica"] ;
edge [fontname="helvetica"] ;
0 [label="bmi <= 26.48\ngini = 0.35\nsamples = 6185\nvalue = [7560, 2202]\nclass = [", fillcolor="#eda673"] ;
1 [label="d1_creatinine_max <= 1.56\ngini = 0.25\nsamples = 2512\nvalue = [3365, 587]\nclass = [", fillcolor="#ea975c"] ;
0 -> 1 [labeldistance=2.5, labelangle=45, headlabel="True"] ;
2 [label="h1_glucose_min <= 179.5\ngini = 0.21\nsamples = 2045\nvalue = [2819, 388]\nclass = [", fillcolor="#e99254"] ;
1 -> 2 ;
3 [label="d1_glucose_max <= 184.5\ngini = 0.16\nsamples = 1880\nvalue = [2685, 265]\nclass = [", fillcolor="#e88d4d"] ;
2 -> 3 ;
4 [label="hospital_admit_source <= 1.5\ngini = 0.1\nsamples = 1621\nvalue = [2398, 134]\nclass = [", fillcolor="#e68844"] ;
3 -> 4 ;
5 [label="d1_hco3_min <= 24.5\ngini = 0.4\nsamples = 19\nvalue = [23, 9]\nclass = [", fillcolor="#efb286"] ;
4 -> 5 ;
6 [label="d1_mbp_min <= 75.5\ngini = 0.47\nsamples = 8\nvalue = [5, 8]\nclass = 0", fillcolor="#b5daf5"] ;
5 -> 6 ;
7 [label="creatinine_apache <= 1.16\ngini = 0.32\nsamples = 6\nvalue = [2, 8]\nclass = 0", fillcolor="#6ab6ec"] ;
6 -> 7 ;
8 [label="gini = 0.0\nsamples = 3\nvalue = [0, 7]\nclass = 0", fillcolor="#399de5"] ;
7 -> 8 ;
9 [label="d1_inr_min <= 1.33\ngini = 0.44\nsamples = 3\nvalue = [2, 1]\nclass = [", fillcolor="#f2c09c"] ;
7 -> 9 ;
10 [label="gini = 0.0\nsamples = 1\nvalue = [0, 1]\nclass = 0", fillcolor="#399de5"] ;
9 -> 10 ;
11 [label="gini = 0.0\nsamples = 2\nvalue = [2, 0]\nclass = [", fillcolor="#e58139"] ;
9 -> 11 ;
12 [label="gini = 0.0\nsamples = 2\nvalue = [3, 0]\nclass = [", fillcolor="#e58139"] ;
6 -> 12 ;
13 [label="d1_arterial_ph_min <= 7.46\ngini = 0.1\nsamples = 11\nvalue = [18, 1]\nclass = [", fillcolor="#e68844"] ;
5 -> 13 ;
14 [label="gini = 0.0\nsamples = 10\nvalue = [18, 0]\nclass = [", fillcolor="#e58139"] ;
13 -> 14 ;
15 [label="gini = 0.0\nsamples = 1\nvalue = [0, 1]\nclass = 0", fillcolor="#399de5"] ;
13 -> 15 ;
16 [label="weight <= 77.65\ngini = 0.09\nsamples = 1602\nvalue = [2375, 125]\nclass = [", fillcolor="#e68843"] ;
4 -> 16 ;
17 [label="d1_sysbp_invasive_max <= 286.5\ngini = 0.08\nsamples = 1370\nvalue = [2046, 88]\nclass = [", fillcolor="#e68642"] ;
16 -> 17 ;
18 [label="d1_glucose_min <= 60.5\ngini = 0.08\nsamples = 1368\nvalue = [2046, 85]\nclass = [", fillcolor="#e68641"] ;
17 -> 18 ;
19 [label="temp_apache <= 36.2\ngini = 0.41\nsamples = 17\nvalue = [20, 8]\nclass = [", fillcolor="#efb388"] ;
18 -> 19 ;
20 [label="d1_hemaglobin_max <= 11.4\ngini = 0.42\nsamples = 6\nvalue = [3, 7]\nclass = 0", fillcolor="#8ec7f0"] ;
19 -> 20 ;
21 [label="gini = 0.0\nsamples = 4\nvalue = [0, 7]\nclass = 0", fillcolor="#399de5"] ;
20 -> 21 ;
22 [label="gini = 0.0\nsamples = 2\nvalue = [3, 0]\nclass = [", fillcolor="#e58139"] ;
20 -> 22 ;
23 [label="gcs_eyes_apache <= 1.5\ngini = 0.1\nsamples = 11\nvalue = [17, 1]\nclass = [", fillcolor="#e78845"] ;
19 -> 23 ;
24 [label="gini = 0.0\nsamples = 1\nvalue = [0, 1]\nclass = 0", fillcolor="#399de5"] ;
23 -> 24 ;
25 [label="gini = 0.0\nsamples = 10\nvalue = [17, 0]\nclass = [", fillcolor="#e58139"] ;
23 -> 25 ;
26 [label="creatinine_apache <= 2.19\ngini = 0.07\nsamples = 1351\nvalue = [2026, 77]\nclass = [", fillcolor="#e68641"] ;
18 -> 26 ;
27 [label="d1_inr_max <= 6.51\ngini = 0.07\nsamples = 1350\nvalue = [2026, 75]\nclass = [", fillcolor="#e68640"] ;
26 -> 27 ;
28 [label="bun_apache <= 25.31\ngini = 0.07\nsamples = 1348\nvalue = [2024, 73]\nclass = [", fillcolor="#e68640"] ;
27 -> 28 ;
29 [label="h1_diasbp_noninvasive_min <= 45.5\ngini = 0.05\nsamples = 867\nvalue = [1314, 31]\nclass = [", fillcolor="#e6843e"] ;
28 -> 29 ;
30 [label="h1_resprate_min <= 23.5\ngini = 0.16\nsamples = 80\nvalue = [111, 11]\nclass = [", fillcolor="#e88d4d"] ;
29 -> 30 ;
31 [label="d1_arterial_pco2_min <= 30.75\ngini = 0.11\nsamples = 76\nvalue = [109, 7]\nclass = [", fillcolor="#e78946"] ;
30 -> 31 ;
32 [label="pre_icu_los_days <= 0.54\ngini = 0.48\nsamples = 2\nvalue = [3, 2]\nclass = [", fillcolor="#f6d5bd"] ;
31 -> 32 ;
33 [label="gini = 0.0\nsamples = 1\nvalue = [0, 2]\nclass = 0", fillcolor="#399de5"] ;
32 -> 33 ;
34 [label="gini = 0.0\nsamples = 1\nvalue = [3, 0]\nclass = [", fillcolor="#e58139"] ;
32 -> 34 ;
35 [label="solid_tumor_with_metastasis <= 0.5\ngini = 0.09\nsamples = 74\nvalue = [106, 5]\nclass = [", fillcolor="#e68742"] ;
31 -> 35 ;
36 [label="d1_mbp_min <= 34.5\ngini = 0.05\nsamples = 72\nvalue = [105, 3]\nclass = [", fillcolor="#e6853f"] ;
35 -> 36 ;
37 [label="h1_mbp_invasive_min <= 59.42\ngini = 0.5\nsamples = 2\nvalue = [1, 1]\nclass = [", fillcolor="#ffffff"] ;
36 -> 37 ;
38 [label="gini = 0.0\nsamples = 1\nvalue = [0, 1]\nclass = 0", fillcolor="#399de5"] ;
37 -> 38 ;
39 [label="gini = 0.0\nsamples = 1\nvalue = [1, 0]\nclass = [", fillcolor="#e58139"] ;
37 -> 39 ;
40 [label="h1_heartrate_max <= 128.5\ngini = 0.04\nsamples = 70\nvalue = [104, 2]\nclass = [", fillcolor="#e6833d"] ;
36 -> 40 ;
41 [label="bmi <= 19.35\ngini = 0.02\nsamples = 66\nvalue = [99, 1]\nclass = [", fillcolor="#e5823b"] ;
40 -> 41 ;
42 [label="d1_mbp_max <= 96.5\ngini = 0.32\nsamples = 5\nvalue = [4, 1]\nclass = [", fillcolor="#eca06a"] ;
41 -> 42 ;
43 [label="gini = 0.0\nsamples = 4\nvalue = [4, 0]\nclass = [", fillcolor="#e58139"] ;
42 -> 43 ;
44 [label="gini = 0.0\nsamples = 1\nvalue = [0, 1]\nclass = 0", fillcolor="#399de5"] ;
42 -> 44 ;
45 [label="gini = 0.0\nsamples = 61\nvalue = [95, 0]\nclass = [", fillcolor="#e58139"] ;
41 -> 45 ;
46 [label="d1_sysbp_invasive_max <= 145.94\ngini = 0.28\nsamples = 4\nvalue = [5, 1]\nclass = [", fillcolor="#ea9a61"] ;
40 -> 46 ;
47 [label="gini = 0.0\nsamples = 1\nvalue = [0, 1]\nclass = 0", fillcolor="#399de5"] ;
46 -> 47 ;
48 [label="gini = 0.0\nsamples = 3\nvalue = [5, 0]\nclass = [", fillcolor="#e58139"] ;
46 -> 48 ;
49 [label="d1_hemaglobin_min <= 8.3\ngini = 0.44\nsamples = 2\nvalue = [1, 2]\nclass = 0", fillcolor="#9ccef2"] ;
35 -> 49 ;
50 [label="gini = 0.0\nsamples = 1\nvalue = [0, 2]\nclass = 0", fillcolor="#399de5"] ;
49 -> 50 ;
51 [label="gini = 0.0\nsamples = 1\nvalue = [1, 0]\nclass = [", fillcolor="#e58139"] ;
49 -> 51 ;
52 [label="d1_diasbp_min <= 43.0\ngini = 0.44\nsamples = 4\nvalue = [2, 4]\nclass = 0", fillcolor="#9ccef2"] ;
30 -> 52 ;
53 [label="gini = 0.0\nsamples = 2\nvalue = [0, 4]\nclass = 0", fillcolor="#399de5"] ;
52 -> 53 ;
54 [label="gini = 0.0\nsamples = 2\nvalue = [2, 0]\nclass = [", fillcolor="#e58139"] ;
52 -> 54 ;
55 [label="heart_rate_apache <= 56.5\ngini = 0.03\nsamples = 787\nvalue = [1203, 20]\nclass = [", fillcolor="#e5833c"] ;
29 -> 55 ;
56 [label="h1_sysbp_noninvasive_min <= 117.5\ngini = 0.09\nsamples = 122\nvalue = [173, 9]\nclass = [", fillcolor="#e68843"] ;
55 -> 56 ;
57 [label="gini = 0.0\nsamples = 59\nvalue = [87, 0]\nclass = [", fillcolor="#e58139"] ;
56 -> 57 ;
58 [label="h1_sodium_min <= 126.5\ngini = 0.17\nsamples = 63\nvalue = [86, 9]\nclass = [", fillcolor="#e88e4e"] ;
56 -> 58 ;
59 [label="gini = 0.0\nsamples = 1\nvalue = [0, 2]\nclass = 0", fillcolor="#399de5"] ;
58 -> 59 ;
60 [label="urineoutput_apache <= 368.88\ngini = 0.14\nsamples = 62\nvalue = [86, 7]\nclass = [", fillcolor="#e78b49"] ;
58 -> 60 ;
61 [label="h1_mbp_max <= 100.0\ngini = 0.48\nsamples = 4\nvalue = [2, 3]\nclass = 0", fillcolor="#bddef6"] ;
60 -> 61 ;
62 [label="gini = 0.0\nsamples = 2\nvalue = [0, 3]\nclass = 0", fillcolor="#399de5"] ;
61 -> 62 ;
63 [label="gini = 0.0\nsamples = 2\nvalue = [2, 0]\nclass = [", fillcolor="#e58139"] ;
61 -> 63 ;
64 [label="d1_calcium_max <= 7.65\ngini = 0.09\nsamples = 58\nvalue = [84, 4]\nclass = [", fillcolor="#e68742"] ;
60 -> 64 ;
65 [label="d1_albumin_min <= 2.45\ngini = 0.38\nsamples = 3\nvalue = [3, 1]\nclass = [", fillcolor="#eeab7b"] ;
64 -> 65 ;
66 [label="gini = 0.0\nsamples = 1\nvalue = [0, 1]\nclass = 0", fillcolor="#399de5"] ;
65 -> 66 ;
67 [label="gini = 0.0\nsamples = 2\nvalue = [3, 0]\nclass = [", fillcolor="#e58139"] ;
65 -> 67 ;
68 [label="albumin_apache <= 2.65\ngini = 0.07\nsamples = 55\nvalue = [81, 3]\nclass = [", fillcolor="#e68640"] ;
64 -> 68 ;
69 [label="gini = 0.0\nsamples = 2\nvalue = [0, 2]\nclass = 0", fillcolor="#399de5"] ;
68 -> 69 ;
70 [label="d1_mbp_max <= 130.0\ngini = 0.02\nsamples = 53\nvalue = [81, 1]\nclass = [", fillcolor="#e5833b"] ;
68 -> 70 ;
71 [label="gini = 0.0\nsamples = 43\nvalue = [71, 0]\nclass = [", fillcolor="#e58139"] ;
70 -> 71 ;
72 [label="weight <= 76.19\ngini = 0.17\nsamples = 10\nvalue = [10, 1]\nclass = [", fillcolor="#e88e4d"] ;
70 -> 72 ;
73 [label="gini = 0.0\nsamples = 9\nvalue = [10, 0]\nclass = [", fillcolor="#e58139"] ;
72 -> 73 ;
74 [label="gini = 0.0\nsamples = 1\nvalue = [0, 1]\nclass = 0", fillcolor="#399de5"] ;
72 -> 74 ;
75 [label="h1_arterial_po2_max <= 452.0\ngini = 0.02\nsamples = 665\nvalue = [1030, 11]\nclass = [", fillcolor="#e5823b"] ;
55 -> 75 ;
76 [label="d1_diasbp_max <= 151.5\ngini = 0.02\nsamples = 660\nvalue = [1025, 10]\nclass = [", fillcolor="#e5823b"] ;
75 -> 76 ;
77 [label="h1_arterial_pco2_min <= 25.7\ngini = 0.02\nsamples = 655\nvalue = [1018, 8]\nclass = [", fillcolor="#e5823b"] ;
76 -> 77 ;
78 [label="d1_hco3_max <= 22.0\ngini = 0.24\nsamples = 3\nvalue = [6, 1]\nclass = [", fillcolor="#e9965a"] ;
77 -> 78 ;
79 [label="gini = 0.0\nsamples = 2\nvalue = [6, 0]\nclass = [", fillcolor="#e58139"] ;
78 -> 79 ;
80 [label="gini = 0.0\nsamples = 1\nvalue = [0, 1]\nclass = 0", fillcolor="#399de5"] ;
78 -> 80 ;
81 [label="d1_pao2fio2ratio_max <= 67.18\ngini = 0.01\nsamples = 652\nvalue = [1012, 7]\nclass = [", fillcolor="#e5823a"] ;
77 -> 81 ;
82 [label="d1_arterial_pco2_max <= 32.0\ngini = 0.44\nsamples = 2\nvalue = [2, 1]\nclass = [", fillcolor="#f2c09c"] ;
81 -> 82 ;
83 [label="gini = 0.0\nsamples = 1\nvalue = [2, 0]\nclass = [", fillcolor="#e58139"] ;
82 -> 83 ;
84 [label="gini = 0.0\nsamples = 1\nvalue = [0, 1]\nclass = 0", fillcolor="#399de5"] ;
82 -> 84 ;
85 [label="d1_bun_min <= 23.22\ngini = 0.01\nsamples = 650\nvalue = [1010, 6]\nclass = [", fillcolor="#e5823a"] ;
81 -> 85 ;
86 [label="d1_diasbp_min <= 73.5\ngini = 0.01\nsamples = 611\nvalue = [956, 4]\nclass = [", fillcolor="#e5823a"] ;
85 -> 86 ;
87 [label="h1_heartrate_min <= 104.5\ngini = 0.0\nsamples = 582\nvalue = [914, 2]\nclass = [", fillcolor="#e58139"] ;
86 -> 87 ;
88 [label="gini = 0.0\nsamples = 490\nvalue = [765, 0]\nclass = [", fillcolor="#e58139"] ;
87 -> 88 ;
89 [label="h1_heartrate_min <= 106.5\ngini = 0.03\nsamples = 92\nvalue = [149, 2]\nclass = [", fillcolor="#e5833c"] ;
87 -> 89 ;
90 [label="h1_mbp_noninvasive_max <= 75.5\ngini = 0.24\nsamples = 9\nvalue = [12, 2]\nclass = [", fillcolor="#e9965a"] ;
89 -> 90 ;
91 [label="resprate_apache <= 27.0\ngini = 0.44\nsamples = 3\nvalue = [1, 2]\nclass = 0", fillcolor="#9ccef2"] ;
90 -> 91 ;
92 [label="gini = 0.0\nsamples = 2\nvalue = [0, 2]\nclass = 0", fillcolor="#399de5"] ;
91 -> 92 ;
93 [label="gini = 0.0\nsamples = 1\nvalue = [1, 0]\nclass = [", fillcolor="#e58139"] ;
91 -> 93 ;
94 [label="gini = 0.0\nsamples = 6\nvalue = [11, 0]\nclass = [", fillcolor="#e58139"] ;
90 -> 94 ;
95 [label="gini = 0.0\nsamples = 83\nvalue = [137, 0]\nclass = [", fillcolor="#e58139"] ;
89 -> 95 ;
96 [label="d1_potassium_min <= 3.45\ngini = 0.09\nsamples = 29\nvalue = [42, 2]\nclass = [", fillcolor="#e68742"] ;
86 -> 96 ;
97 [label="d1_potassium_max <= 4.05\ngini = 0.38\nsamples = 5\nvalue = [6, 2]\nclass = [", fillcolor="#eeab7b"] ;
96 -> 97 ;
98 [label="gini = 0.0\nsamples = 4\nvalue = [6, 0]\nclass = [", fillcolor="#e58139"] ;
97 -> 98 ;
99 [label="gini = 0.0\nsamples = 1\nvalue = [0, 2]\nclass = 0", fillcolor="#399de5"] ;
97 -> 99 ;
100 [label="gini = 0.0\nsamples = 24\nvalue = [36, 0]\nclass = [", fillcolor="#e58139"] ;
96 -> 100 ;
101 [label="h1_sysbp_invasive_max <= 149.0\ngini = 0.07\nsamples = 39\nvalue = [54, 2]\nclass = [", fillcolor="#e68640"] ;
85 -> 101 ;
102 [label="d1_inr_min <= 1.15\ngini = 0.04\nsamples = 38\nvalue = [54, 1]\nclass = [", fillcolor="#e5833d"] ;
101 -> 102 ;
103 [label="d1_heartrate_max <= 109.5\ngini = 0.44\nsamples = 3\nvalue = [2, 1]\nclass = [", fillcolor="#f2c09c"] ;
102 -> 103 ;
104 [label="gini = 0.0\nsamples = 1\nvalue = [0, 1]\nclass = 0", fillcolor="#399de5"] ;
103 -> 104 ;
105 [label="gini = 0.0\nsamples = 2\nvalue = [2, 0]\nclass = [", fillcolor="#e58139"] ;
103 -> 105 ;
106 [label="gini = 0.0\nsamples = 35\nvalue = [52, 0]\nclass = [", fillcolor="#e58139"] ;
102 -> 106 ;
107 [label="gini = 0.0\nsamples = 1\nvalue = [0, 1]\nclass = 0", fillcolor="#399de5"] ;
101 -> 107 ;
108 [label="h1_heartrate_max <= 92.5\ngini = 0.35\nsamples = 5\nvalue = [7, 2]\nclass = [", fillcolor="#eca572"] ;
76 -> 108 ;
109 [label="gini = 0.0\nsamples = 1\nvalue = [0, 2]\nclass = 0", fillcolor="#399de5"] ;
108 -> 109 ;
110 [label="gini = 0.0\nsamples = 4\nvalue = [7, 0]\nclass = [", fillcolor="#e58139"] ;
108 -> 110 ;
111 [label="hematocrit_apache <= 30.75\ngini = 0.28\nsamples = 5\nvalue = [5, 1]\nclass = [", fillcolor="#ea9a61"] ;
75 -> 111 ;
112 [label="gini = 0.0\nsamples = 4\nvalue = [5, 0]\nclass = [", fillcolor="#e58139"] ;
111 -> 112 ;
113 [label="gini = 0.0\nsamples = 1\nvalue = [0, 1]\nclass = 0", fillcolor="#399de5"] ;
111 -> 113 ;
114 [label="d1_arterial_pco2_min <= 84.96\ngini = 0.11\nsamples = 481\nvalue = [710, 42]\nclass = [", fillcolor="#e78845"] ;
28 -> 114 ;
115 [label="d1_sysbp_noninvasive_max <= 190.5\ngini = 0.1\nsamples = 480\nvalue = [710, 41]\nclass = [", fillcolor="#e78844"] ;
114 -> 115 ;
116 [label="d1_creatinine_min <= 0.86\ngini = 0.08\nsamples = 448\nvalue = [673, 30]\nclass = [", fillcolor="#e68742"] ;
115 -> 116 ;
117 [label="d1_mbp_noninvasive_min <= 99.0\ngini = 0.01\nsamples = 128\nvalue = [200, 1]\nclass = [", fillcolor="#e5823a"] ;
116 -> 117 ;
118 [label="gini = 0.0\nsamples = 126\nvalue = [199, 0]\nclass = [", fillcolor="#e58139"] ;
117 -> 118 ;
119 [label="icu_type <= 2.5\ngini = 0.5\nsamples = 2\nvalue = [1, 1]\nclass = [", fillcolor="#ffffff"] ;
117 -> 119 ;
120 [label="gini = 0.0\nsamples = 1\nvalue = [0, 1]\nclass = 0", fillcolor="#399de5"] ;
119 -> 120 ;
121 [label="gini = 0.0\nsamples = 1\nvalue = [1, 0]\nclass = [", fillcolor="#e58139"] ;
119 -> 121 ;
122 [label="d1_mbp_invasive_max <= 92.5\ngini = 0.11\nsamples = 320\nvalue = [473, 29]\nclass = [", fillcolor="#e78945"] ;
116 -> 122 ;
123 [label="d1_bun_max <= 24.23\ngini = 0.39\nsamples = 15\nvalue = [19, 7]\nclass = [", fillcolor="#efaf82"] ;
122 -> 123 ;
124 [label="h1_sysbp_noninvasive_min <= 108.5\ngini = 0.41\nsamples = 4\nvalue = [2, 5]\nclass = 0", fillcolor="#88c4ef"] ;
123 -> 124 ;
125 [label="gini = 0.0\nsamples = 2\nvalue = [2, 0]\nclass = [", fillcolor="#e58139"] ;
124 -> 125 ;
126 [label="gini = 0.0\nsamples = 2\nvalue = [0, 5]\nclass = 0", fillcolor="#399de5"] ;
124 -> 126 ;
127 [label="h1_lactate_max <= 2.71\ngini = 0.19\nsamples = 11\nvalue = [17, 2]\nclass = [", fillcolor="#e89050"] ;
123 -> 127 ;
128 [label="gini = 0.0\nsamples = 1\nvalue = [0, 2]\nclass = 0", fillcolor="#399de5"] ;
127 -> 128 ;
129 [label="gini = 0.0\nsamples = 10\nvalue = [17, 0]\nclass = [", fillcolor="#e58139"] ;
127 -> 129 ;
130 [label="d1_calcium_min <= 9.95\ngini = 0.09\nsamples = 305\nvalue = [454, 22]\nclass = [", fillcolor="#e68743"] ;
122 -> 130 ;
131 [label="hospital_id <= 203.5\ngini = 0.08\nsamples = 303\nvalue = [453, 20]\nclass = [", fillcolor="#e68742"] ;
130 -> 131 ;
132 [label="bmi <= 15.95\ngini = 0.07\nsamples = 301\nvalue = [452, 18]\nclass = [", fillcolor="#e68641"] ;
131 -> 132 ;
133 [label="h1_temp_min <= 36.66\ngini = 0.5\nsamples = 6\nvalue = [4, 4]\nclass = [", fillcolor="#ffffff"] ;
132 -> 133 ;
134 [label="d1_heartrate_min <= 88.0\ngini = 0.32\nsamples = 5\nvalue = [4, 1]\nclass = [", fillcolor="#eca06a"] ;
133 -> 134 ;
135 [label="gini = 0.0\nsamples = 4\nvalue = [4, 0]\nclass = [", fillcolor="#e58139"] ;
134 -> 135 ;
136 [label="gini = 0.0\nsamples = 1\nvalue = [0, 1]\nclass = 0", fillcolor="#399de5"] ;
134 -> 136 ;
137 [label="gini = 0.0\nsamples = 1\nvalue = [0, 3]\nclass = 0", fillcolor="#399de5"] ;
133 -> 137 ;
138 [label="h1_diasbp_noninvasive_max <= 38.0\ngini = 0.06\nsamples = 295\nvalue = [448, 14]\nclass = [", fillcolor="#e6853f"] ;
132 -> 138 ;
139 [label="d1_diasbp_min <= 19.0\ngini = 0.44\nsamples = 3\nvalue = [4, 2]\nclass = [", fillcolor="#f2c09c"] ;
138 -> 139 ;
140 [label="gini = 0.0\nsamples = 1\nvalue = [0, 2]\nclass = 0", fillcolor="#399de5"] ;
139 -> 140 ;
141 [label="gini = 0.0\nsamples = 2\nvalue = [4, 0]\nclass = [", fillcolor="#e58139"] ;
139 -> 141 ;
142 [label="d1_resprate_min <= 18.5\ngini = 0.05\nsamples = 292\nvalue = [444, 12]\nclass = [", fillcolor="#e6843e"] ;
138 -> 142 ;
143 [label="d1_sysbp_noninvasive_min <= 108.5\ngini = 0.03\nsamples = 259\nvalue = [400, 7]\nclass = [", fillcolor="#e5833c"] ;
142 -> 143 ;
144 [label="encounter_id <= 257060.0\ngini = 0.01\nsamples = 195\nvalue = [310, 1]\nclass = [", fillcolor="#e5813a"] ;
143 -> 144 ;
145 [label="gini = 0.0\nsamples = 172\nvalue = [277, 0]\nclass = [", fillcolor="#e58139"] ;
144 -> 145 ;
146 [label="d1_sysbp_noninvasive_max <= 126.5\ngini = 0.06\nsamples = 23\nvalue = [33, 1]\nclass = [", fillcolor="#e6853f"] ;
144 -> 146 ;
147 [label="h1_mbp_noninvasive_max <= 86.0\ngini = 0.28\nsamples = 6\nvalue = [5, 1]\nclass = [", fillcolor="#ea9a61"] ;
146 -> 147 ;
148 [label="gini = 0.0\nsamples = 5\nvalue = [5, 0]\nclass = [", fillcolor="#e58139"] ;
147 -> 148 ;
149 [label="gini = 0.0\nsamples = 1\nvalue = [0, 1]\nclass = 0", fillcolor="#399de5"] ;
147 -> 149 ;
150 [label="gini = 0.0\nsamples = 17\nvalue = [28, 0]\nclass = [", fillcolor="#e58139"] ;
146 -> 150 ;
151 [label="h1_heartrate_min <= 55.0\ngini = 0.12\nsamples = 64\nvalue = [90, 6]\nclass = [", fillcolor="#e78946"] ;
143 -> 151 ;
152 [label="h1_heartrate_max <= 69.5\ngini = 0.5\nsamples = 4\nvalue = [2, 2]\nclass = [", fillcolor="#ffffff"] ;
151 -> 152 ;
153 [label="gini = 0.0\nsamples = 2\nvalue = [2, 0]\nclass = [", fillcolor="#e58139"] ;
152 -> 153 ;
154 [label="gini = 0.0\nsamples = 2\nvalue = [0, 2]\nclass = 0", fillcolor="#399de5"] ;
152 -> 154 ;
155 [label="h1_sysbp_min <= 120.5\ngini = 0.08\nsamples = 60\nvalue = [88, 4]\nclass = [", fillcolor="#e68742"] ;
151 -> 155 ;
156 [label="urineoutput_apache <= 552.48\ngini = 0.24\nsamples = 14\nvalue = [18, 3]\nclass = [", fillcolor="#e9965a"] ;
155 -> 156 ;
157 [label="d1_resprate_max <= 26.0\ngini = 0.44\nsamples = 2\nvalue = [1, 2]\nclass = 0", fillcolor="#9ccef2"] ;
156 -> 157 ;
158 [label="gini = 0.0\nsamples = 1\nvalue = [1, 0]\nclass = [", fillcolor="#e58139"] ;
157 -> 158 ;
159 [label="gini = 0.0\nsamples = 1\nvalue = [0, 2]\nclass = 0", fillcolor="#399de5"] ;
157 -> 159 ;
160 [label="d1_potassium_min <= 4.6\ngini = 0.1\nsamples = 12\nvalue = [17, 1]\nclass = [", fillcolor="#e78845"] ;
156 -> 160 ;
161 [label="gini = 0.0\nsamples = 11\nvalue = [17, 0]\nclass = [", fillcolor="#e58139"] ;
160 -> 161 ;
162 [label="gini = 0.0\nsamples = 1\nvalue = [0, 1]\nclass = 0", fillcolor="#399de5"] ;
160 -> 162 ;
163 [label="icu_id <= 1054.0\ngini = 0.03\nsamples = 46\nvalue = [70, 1]\nclass = [", fillcolor="#e5833c"] ;
155 -> 163 ;
164 [label="gini = 0.0\nsamples = 42\nvalue = [66, 0]\nclass = [", fillcolor="#e58139"] ;
163 -> 164 ;
165 [label="icu_id <= 1063.5\ngini = 0.32\nsamples = 4\nvalue = [4, 1]\nclass = [", fillcolor="#eca06a"] ;
163 -> 165 ;
166 [label="gini = 0.0\nsamples = 1\nvalue = [0, 1]\nclass = 0", fillcolor="#399de5"] ;
165 -> 166 ;
167 [label="gini = 0.0\nsamples = 3\nvalue = [4, 0]\nclass = [", fillcolor="#e58139"] ;
165 -> 167 ;
168 [label="d1_hematocrit_max <= 43.55\ngini = 0.18\nsamples = 33\nvalue = [44, 5]\nclass = [", fillcolor="#e88f50"] ;
142 -> 168 ;
169 [label="icu_id <= 256.0\ngini = 0.12\nsamples = 32\nvalue = [44, 3]\nclass = [", fillcolor="#e78a46"] ;
168 -> 169 ;
170 [label="apache_3j_diagnosis <= 955.56\ngini = 0.4\nsamples = 6\nvalue = [8, 3]\nclass = [", fillcolor="#efb083"] ;
169 -> 170 ;
171 [label="h1_resprate_max <= 28.0\ngini = 0.2\nsamples = 5\nvalue = [8, 1]\nclass = [", fillcolor="#e89152"] ;
170 -> 171 ;
172 [label="gini = 0.0\nsamples = 4\nvalue = [8, 0]\nclass = [", fillcolor="#e58139"] ;
171 -> 172 ;
173 [label="gini = 0.0\nsamples = 1\nvalue = [0, 1]\nclass = 0", fillcolor="#399de5"] ;
171 -> 173 ;
174 [label="gini = 0.0\nsamples = 1\nvalue = [0, 2]\nclass = 0", fillcolor="#399de5"] ;
170 -> 174 ;
175 [label="gini = 0.0\nsamples = 26\nvalue = [36, 0]\nclass = [", fillcolor="#e58139"] ;
169 -> 175 ;
176 [label="gini = 0.0\nsamples = 1\nvalue = [0, 2]\nclass = 0", fillcolor="#399de5"] ;
168 -> 176 ;
177 [label="d1_mbp_min <= 66.0\ngini = 0.44\nsamples = 2\nvalue = [1, 2]\nclass = 0", fillcolor="#9ccef2"] ;
131 -> 177 ;
178 [label="gini = 0.0\nsamples = 1\nvalue = [0, 2]\nclass = 0", fillcolor="#399de5"] ;
177 -> 178 ;
179 [label="gini = 0.0\nsamples = 1\nvalue = [1, 0]\nclass = [", fillcolor="#e58139"] ;
177 -> 179 ;
180 [label="h1_sysbp_max <= 141.5\ngini = 0.44\nsamples = 2\nvalue = [1, 2]\nclass = 0", fillcolor="#9ccef2"] ;
130 -> 180 ;
181 [label="gini = 0.0\nsamples = 1\nvalue = [0, 2]\nclass = 0", fillcolor="#399de5"] ;
180 -> 181 ;
182 [label="gini = 0.0\nsamples = 1\nvalue = [1, 0]\nclass = [", fillcolor="#e58139"] ;
180 -> 182 ;
183 [label="d1_temp_max <= 37.55\ngini = 0.35\nsamples = 32\nvalue = [37, 11]\nclass = [", fillcolor="#eda674"] ;
115 -> 183 ;
184 [label="weight <= 59.87\ngini = 0.21\nsamples = 28\nvalue = [36, 5]\nclass = [", fillcolor="#e99254"] ;
183 -> 184 ;
185 [label="gini = 0.0\nsamples = 14\nvalue = [19, 0]\nclass = [", fillcolor="#e58139"] ;
184 -> 185 ;
186 [label="h1_heartrate_max <= 64.5\ngini = 0.35\nsamples = 14\nvalue = [17, 5]\nclass = [", fillcolor="#eda673"] ;
184 -> 186 ;
187 [label="d1_sysbp_noninvasive_max <= 195.5\ngini = 0.38\nsamples = 3\nvalue = [1, 3]\nclass = 0", fillcolor="#7bbeee"] ;
186 -> 187 ;
188 [label="gini = 0.0\nsamples = 1\nvalue = [1, 0]\nclass = [", fillcolor="#e58139"] ;
187 -> 188 ;
189 [label="gini = 0.0\nsamples = 2\nvalue = [0, 3]\nclass = 0", fillcolor="#399de5"] ;
187 -> 189 ;
190 [label="d1_sysbp_noninvasive_max <= 191.5\ngini = 0.2\nsamples = 11\nvalue = [16, 2]\nclass = [", fillcolor="#e89152"] ;
186 -> 190 ;
191 [label="gini = 0.0\nsamples = 1\nvalue = [0, 2]\nclass = 0", fillcolor="#399de5"] ;
190 -> 191 ;
192 [label="gini = 0.0\nsamples = 10\nvalue = [16, 0]\nclass = [", fillcolor="#e58139"] ;
190 -> 192 ;
193 [label="apache_3j_diagnosis <= 954.54\ngini = 0.24\nsamples = 4\nvalue = [1, 6]\nclass = 0", fillcolor="#5aade9"] ;
183 -> 193 ;
194 [label="gini = 0.0\nsamples = 3\nvalue = [0, 6]\nclass = 0", fillcolor="#399de5"] ;
193 -> 194 ;
195 [label="gini = 0.0\nsamples = 1\nvalue = [1, 0]\nclass = [", fillcolor="#e58139"] ;
193 -> 195 ;
196 [label="gini = 0.0\nsamples = 1\nvalue = [0, 1]\nclass = 0", fillcolor="#399de5"] ;
114 -> 196 ;
197 [label="d1_arterial_pco2_min <= 39.15\ngini = 0.5\nsamples = 2\nvalue = [2, 2]\nclass = [", fillcolor="#ffffff"] ;
27 -> 197 ;
198 [label="gini = 0.0\nsamples = 1\nvalue = [0, 2]\nclass = 0", fillcolor="#399de5"] ;
197 -> 198 ;
199 [label="gini = 0.0\nsamples = 1\nvalue = [2, 0]\nclass = [", fillcolor="#e58139"] ;
197 -> 199 ;
200 [label="gini = 0.0\nsamples = 1\nvalue = [0, 2]\nclass = 0", fillcolor="#399de5"] ;
26 -> 200 ;
201 [label="gini = 0.0\nsamples = 2\nvalue = [0, 3]\nclass = 0", fillcolor="#399de5"] ;
17 -> 201 ;
202 [label="d1_sysbp_noninvasive_min <= 137.5\ngini = 0.18\nsamples = 232\nvalue = [329, 37]\nclass = [", fillcolor="#e88f4f"] ;
16 -> 202 ;
203 [label="d1_sysbp_invasive_max <= 194.5\ngini = 0.13\nsamples = 223\nvalue = [323, 25]\nclass = [", fillcolor="#e78b48"] ;
202 -> 203 ;
204 [label="d1_sysbp_min <= 58.5\ngini = 0.11\nsamples = 219\nvalue = [322, 21]\nclass = [", fillcolor="#e78946"] ;
203 -> 204 ;
205 [label="gini = 0.0\nsamples = 1\nvalue = [0, 2]\nclass = 0", fillcolor="#399de5"] ;
204 -> 205 ;
206 [label="d1_inr_max <= 1.14\ngini = 0.11\nsamples = 218\nvalue = [322, 19]\nclass = [", fillcolor="#e78845"] ;
204 -> 206 ;
207 [label="h1_pao2fio2ratio_min <= 278.61\ngini = 0.23\nsamples = 29\nvalue = [40, 6]\nclass = [", fillcolor="#e99457"] ;
206 -> 207 ;
208 [label="h1_creatinine_min <= 0.55\ngini = 0.17\nsamples = 27\nvalue = [40, 4]\nclass = [", fillcolor="#e88e4d"] ;
207 -> 208 ;
209 [label="gini = 0.0\nsamples = 1\nvalue = [0, 1]\nclass = 0", fillcolor="#399de5"] ;
208 -> 209 ;
210 [label="h1_heartrate_min <= 55.0\ngini = 0.13\nsamples = 26\nvalue = [40, 3]\nclass = [", fillcolor="#e78a48"] ;
208 -> 210 ;
211 [label="gini = 0.0\nsamples = 1\nvalue = [0, 2]\nclass = 0", fillcolor="#399de5"] ;
210 -> 211 ;
212 [label="d1_sysbp_noninvasive_max <= 164.0\ngini = 0.05\nsamples = 25\nvalue = [40, 1]\nclass = [", fillcolor="#e6843e"] ;
210 -> 212 ;
213 [label="gini = 0.0\nsamples = 21\nvalue = [35, 0]\nclass = [", fillcolor="#e58139"] ;
212 -> 213 ;
214 [label="h1_diasbp_noninvasive_max <= 77.0\ngini = 0.28\nsamples = 4\nvalue = [5, 1]\nclass = [", fillcolor="#ea9a61"] ;
212 -> 214 ;
215 [label="gini = 0.0\nsamples = 1\nvalue = [0, 1]\nclass = 0", fillcolor="#399de5"] ;
214 -> 215 ;
216 [label="gini = 0.0\nsamples = 3\nvalue = [5, 0]\nclass = [", fillcolor="#e58139"] ;
214 -> 216 ;
217 [label="gini = 0.0\nsamples = 2\nvalue = [0, 2]\nclass = 0", fillcolor="#399de5"] ;
207 -> 217 ;
218 [label="h1_resprate_max <= 15.5\ngini = 0.08\nsamples = 189\nvalue = [282, 13]\nclass = [", fillcolor="#e68742"] ;
206 -> 218 ;
219 [label="d1_wbc_min <= 5.55\ngini = 0.3\nsamples = 30\nvalue = [36, 8]\nclass = [", fillcolor="#eb9d65"] ;
218 -> 219 ;
220 [label="gini = 0.0\nsamples = 1\nvalue = [0, 3]\nclass = 0", fillcolor="#399de5"] ;
219 -> 220 ;
221 [label="h1_sysbp_max <= 104.5\ngini = 0.21\nsamples = 29\nvalue = [36, 5]\nclass = [", fillcolor="#e99254"] ;
219 -> 221 ;
222 [label="gini = 0.0\nsamples = 1\nvalue = [0, 1]\nclass = 0", fillcolor="#399de5"] ;
221 -> 222 ;
223 [label="d1_diasbp_min <= 33.5\ngini = 0.18\nsamples = 28\nvalue = [36, 4]\nclass = [", fillcolor="#e88f4f"] ;
221 -> 223 ;
224 [label="gini = 0.0\nsamples = 2\nvalue = [0, 3]\nclass = 0", fillcolor="#399de5"] ;
223 -> 224 ;
225 [label="d1_mbp_noninvasive_max <= 74.5\ngini = 0.05\nsamples = 26\nvalue = [36, 1]\nclass = [", fillcolor="#e6843e"] ;
223 -> 225 ;
226 [label="gini = 0.0\nsamples = 1\nvalue = [0, 1]\nclass = 0", fillcolor="#399de5"] ;
225 -> 226 ;
227 [label="gini = 0.0\nsamples = 25\nvalue = [36, 0]\nclass = [", fillcolor="#e58139"] ;
225 -> 227 ;
228 [label="h1_sysbp_noninvasive_min <= 162.0\ngini = 0.04\nsamples = 159\nvalue = [246, 5]\nclass = [", fillcolor="#e6843d"] ;
218 -> 228 ;
229 [label="age <= 9.0\ngini = 0.02\nsamples = 156\nvalue = [243, 3]\nclass = [", fillcolor="#e5833b"] ;
228 -> 229 ;
230 [label="gini = 0.0\nsamples = 1\nvalue = [0, 1]\nclass = 0", fillcolor="#399de5"] ;
229 -> 230 ;
231 [label="h1_temp_min <= 35.65\ngini = 0.02\nsamples = 155\nvalue = [243, 2]\nclass = [", fillcolor="#e5823b"] ;
229 -> 231 ;
232 [label="d1_platelets_min <= 111.0\ngini = 0.1\nsamples = 8\nvalue = [17, 1]\nclass = [", fillcolor="#e78845"] ;
231 -> 232 ;
233 [label="gini = 0.0\nsamples = 1\nvalue = [0, 1]\nclass = 0", fillcolor="#399de5"] ;
232 -> 233 ;
234 [label="gini = 0.0\nsamples = 7\nvalue = [17, 0]\nclass = [", fillcolor="#e58139"] ;
232 -> 234 ;
235 [label="h1_mbp_max <= 108.5\ngini = 0.01\nsamples = 147\nvalue = [226, 1]\nclass = [", fillcolor="#e5823a"] ;
231 -> 235 ;
236 [label="gini = 0.0\nsamples = 123\nvalue = [192, 0]\nclass = [", fillcolor="#e58139"] ;
235 -> 236 ;
237 [label="d1_diasbp_invasive_max <= 82.5\ngini = 0.06\nsamples = 24\nvalue = [34, 1]\nclass = [", fillcolor="#e6853f"] ;
235 -> 237 ;
238 [label="gini = 0.0\nsamples = 23\nvalue = [34, 0]\nclass = [", fillcolor="#e58139"] ;
237 -> 238 ;
239 [label="gini = 0.0\nsamples = 1\nvalue = [0, 1]\nclass = 0", fillcolor="#399de5"] ;
237 -> 239 ;
240 [label="d1_platelets_min <= 151.0\ngini = 0.48\nsamples = 3\nvalue = [3, 2]\nclass = [", fillcolor="#f6d5bd"] ;
228 -> 240 ;
241 [label="gini = 0.0\nsamples = 1\nvalue = [0, 2]\nclass = 0", fillcolor="#399de5"] ;
240 -> 241 ;
242 [label="gini = 0.0\nsamples = 2\nvalue = [3, 0]\nclass = [", fillcolor="#e58139"] ;
240 -> 242 ;
243 [label="h1_sysbp_max <= 117.5\ngini = 0.32\nsamples = 4\nvalue = [1, 4]\nclass = 0", fillcolor="#6ab6ec"] ;
203 -> 243 ;
244 [label="gini = 0.0\nsamples = 3\nvalue = [0, 4]\nclass = 0", fillcolor="#399de5"] ;
243 -> 244 ;
245 [label="gini = 0.0\nsamples = 1\nvalue = [1, 0]\nclass = [", fillcolor="#e58139"] ;
243 -> 245 ;
246 [label="resprate_apache <= 13.0\ngini = 0.44\nsamples = 9\nvalue = [6, 12]\nclass = 0", fillcolor="#9ccef2"] ;
202 -> 246 ;
247 [label="gini = 0.0\nsamples = 2\nvalue = [3, 0]\nclass = [", fillcolor="#e58139"] ;
246 -> 247 ;
248 [label="h1_sysbp_noninvasive_min <= 153.5\ngini = 0.32\nsamples = 7\nvalue = [3, 12]\nclass = 0", fillcolor="#6ab6ec"] ;
246 -> 248 ;
249 [label="gini = 0.0\nsamples = 3\nvalue = [0, 9]\nclass = 0", fillcolor="#399de5"] ;
248 -> 249 ;
250 [label="d1_platelets_min <= 223.5\ngini = 0.5\nsamples = 4\nvalue = [3, 3]\nclass = [", fillcolor="#ffffff"] ;
248 -> 250 ;
251 [label="gini = 0.0\nsamples = 2\nvalue = [3, 0]\nclass = [", fillcolor="#e58139"] ;
250 -> 251 ;
252 [label="gini = 0.0\nsamples = 2\nvalue = [0, 3]\nclass = 0", fillcolor="#399de5"] ;
250 -> 252 ;
253 [label="gcs_verbal_apache <= 3.5\ngini = 0.43\nsamples = 259\nvalue = [287, 131]\nclass = [", fillcolor="#f1bb93"] ;
3 -> 253 ;
254 [label="h1_mbp_noninvasive_min <= 126.5\ngini = 0.14\nsamples = 69\nvalue = [99, 8]\nclass = [", fillcolor="#e78b49"] ;
253 -> 254 ;
255 [label="d1_bilirubin_max <= 19.15\ngini = 0.12\nsamples = 68\nvalue = [99, 7]\nclass = [", fillcolor="#e78a47"] ;
254 -> 255 ;
256 [label="pre_icu_los_days <= 0.0\ngini = 0.11\nsamples = 67\nvalue = [99, 6]\nclass = [", fillcolor="#e78945"] ;
255 -> 256 ;
257 [label="gini = 0.0\nsamples = 1\nvalue = [0, 2]\nclass = 0", fillcolor="#399de5"] ;
256 -> 257 ;
258 [label="d1_sysbp_max <= 206.0\ngini = 0.07\nsamples = 66\nvalue = [99, 4]\nclass = [", fillcolor="#e68641"] ;
256 -> 258 ;
259 [label="d1_hematocrit_min <= 26.55\ngini = 0.06\nsamples = 65\nvalue = [99, 3]\nclass = [", fillcolor="#e6853f"] ;
258 -> 259 ;
260 [label="d1_arterial_po2_max <= 475.0\ngini = 0.17\nsamples = 20\nvalue = [29, 3]\nclass = [", fillcolor="#e88e4d"] ;
259 -> 260 ;
261 [label="resprate_apache <= 5.0\ngini = 0.12\nsamples = 19\nvalue = [29, 2]\nclass = [", fillcolor="#e78a47"] ;
260 -> 261 ;
262 [label="d1_pao2fio2ratio_max <= 347.98\ngini = 0.5\nsamples = 2\nvalue = [1, 1]\nclass = [", fillcolor="#ffffff"] ;
261 -> 262 ;
263 [label="gini = 0.0\nsamples = 1\nvalue = [0, 1]\nclass = 0", fillcolor="#399de5"] ;
262 -> 263 ;
264 [label="gini = 0.0\nsamples = 1\nvalue = [1, 0]\nclass = [", fillcolor="#e58139"] ;
262 -> 264 ;
265 [label="urineoutput_apache <= 3179.65\ngini = 0.07\nsamples = 17\nvalue = [28, 1]\nclass = [", fillcolor="#e68640"] ;
261 -> 265 ;
266 [label="gini = 0.0\nsamples = 16\nvalue = [28, 0]\nclass = [", fillcolor="#e58139"] ;
265 -> 266 ;
267 [label="gini = 0.0\nsamples = 1\nvalue = [0, 1]\nclass = 0", fillcolor="#399de5"] ;
265 -> 267 ;
268 [label="gini = 0.0\nsamples = 1\nvalue = [0, 1]\nclass = 0", fillcolor="#399de5"] ;
260 -> 268 ;
269 [label="gini = 0.0\nsamples = 45\nvalue = [70, 0]\nclass = [", fillcolor="#e58139"] ;
259 -> 269 ;
270 [label="gini = 0.0\nsamples = 1\nvalue = [0, 1]\nclass = 0", fillcolor="#399de5"] ;
258 -> 270 ;
271 [label="gini = 0.0\nsamples = 1\nvalue = [0, 1]\nclass = 0", fillcolor="#399de5"] ;
255 -> 271 ;
272 [label="gini = 0.0\nsamples = 1\nvalue = [0, 1]\nclass = 0", fillcolor="#399de5"] ;
254 -> 272 ;
273 [label="d1_calcium_max <= 7.85\ngini = 0.48\nsamples = 190\nvalue = [188, 123]\nclass = [", fillcolor="#f6d3bb"] ;
253 -> 273 ;
274 [label="ethnicity <= 1.5\ngini = 0.38\nsamples = 57\nvalue = [75, 26]\nclass = [", fillcolor="#eead7e"] ;
273 -> 274 ;
275 [label="gini = 0.0\nsamples = 4\nvalue = [0, 7]\nclass = 0", fillcolor="#399de5"] ;
274 -> 275 ;
276 [label="sodium_apache <= 137.98\ngini = 0.32\nsamples = 53\nvalue = [75, 19]\nclass = [", fillcolor="#eca16b"] ;
274 -> 276 ;
277 [label="d1_calcium_min <= 6.5\ngini = 0.13\nsamples = 35\nvalue = [55, 4]\nclass = [", fillcolor="#e78a47"] ;
276 -> 277 ;
278 [label="h1_mbp_invasive_min <= 61.42\ngini = 0.49\nsamples = 7\nvalue = [3, 4]\nclass = 0", fillcolor="#cee6f8"] ;
277 -> 278 ;
279 [label="gini = 0.0\nsamples = 2\nvalue = [2, 0]\nclass = [", fillcolor="#e58139"] ;
278 -> 279 ;
280 [label="icu_admit_source <= 3.5\ngini = 0.32\nsamples = 5\nvalue = [1, 4]\nclass = 0", fillcolor="#6ab6ec"] ;
278 -> 280 ;
281 [label="gini = 0.0\nsamples = 4\nvalue = [0, 4]\nclass = 0", fillcolor="#399de5"] ;
280 -> 281 ;
282 [label="gini = 0.0\nsamples = 1\nvalue = [1, 0]\nclass = [", fillcolor="#e58139"] ;
280 -> 282 ;
283 [label="gini = 0.0\nsamples = 28\nvalue = [52, 0]\nclass = [", fillcolor="#e58139"] ;
277 -> 283 ;
284 [label="d1_wbc_min <= 11.61\ngini = 0.49\nsamples = 18\nvalue = [20, 15]\nclass = [", fillcolor="#f8e0ce"] ;
276 -> 284 ;
285 [label="height <= 163.85\ngini = 0.43\nsamples = 11\nvalue = [7, 15]\nclass = 0", fillcolor="#95cbf1"] ;
284 -> 285 ;
286 [label="h1_arterial_ph_max <= 7.26\ngini = 0.14\nsamples = 5\nvalue = [1, 12]\nclass = 0", fillcolor="#49a5e7"] ;
285 -> 286 ;
287 [label="gini = 0.0\nsamples = 1\nvalue = [1, 0]\nclass = [", fillcolor="#e58139"] ;
286 -> 287 ;
288 [label="gini = 0.0\nsamples = 4\nvalue = [0, 12]\nclass = 0", fillcolor="#399de5"] ;
286 -> 288 ;
289 [label="d1_mbp_max <= 102.0\ngini = 0.44\nsamples = 6\nvalue = [6, 3]\nclass = [", fillcolor="#f2c09c"] ;
285 -> 289 ;
290 [label="resprate_apache <= 42.5\ngini = 0.48\nsamples = 4\nvalue = [2, 3]\nclass = 0", fillcolor="#bddef6"] ;
289 -> 290 ;
291 [label="gini = 0.0\nsamples = 3\nvalue = [0, 3]\nclass = 0", fillcolor="#399de5"] ;
290 -> 291 ;
292 [label="gini = 0.0\nsamples = 1\nvalue = [2, 0]\nclass = [", fillcolor="#e58139"] ;
290 -> 292 ;
293 [label="gini = 0.0\nsamples = 2\nvalue = [4, 0]\nclass = [", fillcolor="#e58139"] ;
289 -> 293 ;
294 [label="gini = 0.0\nsamples = 7\nvalue = [13, 0]\nclass = [", fillcolor="#e58139"] ;
284 -> 294 ;
295 [label="h1_arterial_po2_min <= 136.0\ngini = 0.5\nsamples = 133\nvalue = [113, 97]\nclass = [", fillcolor="#fbede3"] ;
273 -> 295 ;
296 [label="d1_heartrate_min <= 58.5\ngini = 0.28\nsamples = 14\nvalue = [20, 4]\nclass = [", fillcolor="#ea9a61"] ;
295 -> 296 ;
297 [label="gini = 0.0\nsamples = 2\nvalue = [0, 4]\nclass = 0", fillcolor="#399de5"] ;
296 -> 297 ;
298 [label="gini = 0.0\nsamples = 12\nvalue = [20, 0]\nclass = [", fillcolor="#e58139"] ;
296 -> 298 ;
299 [label="h1_temp_min <= 37.13\ngini = 0.5\nsamples = 119\nvalue = [93, 93]\nclass = [", fillcolor="#ffffff"] ;
295 -> 299 ;
300 [label="d1_diasbp_invasive_max <= 83.58\ngini = 0.49\nsamples = 107\nvalue = [74, 92]\nclass = 0", fillcolor="#d8ecfa"] ;
299 -> 300 ;
301 [label="h1_diasbp_noninvasive_min <= 84.5\ngini = 0.48\nsamples = 100\nvalue = [64, 91]\nclass = 0", fillcolor="#c4e2f7"] ;
300 -> 301 ;
302 [label="d1_resprate_min <= 8.5\ngini = 0.46\nsamples = 92\nvalue = [51, 90]\nclass = 0", fillcolor="#a9d5f4"] ;
301 -> 302 ;
303 [label="d1_arterial_ph_min <= 7.39\ngini = 0.24\nsamples = 12\nvalue = [12, 2]\nclass = [", fillcolor="#e9965a"] ;
302 -> 303 ;
304 [label="heart_rate_apache <= 65.5\ngini = 0.14\nsamples = 11\nvalue = [12, 1]\nclass = [", fillcolor="#e78c49"] ;
303 -> 304 ;
305 [label="gini = 0.0\nsamples = 1\nvalue = [0, 1]\nclass = 0", fillcolor="#399de5"] ;
304 -> 305 ;
306 [label="gini = 0.0\nsamples = 10\nvalue = [12, 0]\nclass = [", fillcolor="#e58139"] ;
304 -> 306 ;
307 [label="gini = 0.0\nsamples = 1\nvalue = [0, 1]\nclass = 0", fillcolor="#399de5"] ;
303 -> 307 ;
308 [label="d1_heartrate_max <= 69.5\ngini = 0.43\nsamples = 80\nvalue = [39, 88]\nclass = 0", fillcolor="#91c8f1"] ;
302 -> 308 ;
309 [label="gini = 0.0\nsamples = 1\nvalue = [4, 0]\nclass = [", fillcolor="#e58139"] ;
308 -> 309 ;
310 [label="h1_pao2fio2ratio_min <= 357.5\ngini = 0.41\nsamples = 79\nvalue = [35, 88]\nclass = 0", fillcolor="#88c4ef"] ;
308 -> 310 ;
311 [label="h1_inr_min <= 2.2\ngini = 0.39\nsamples = 78\nvalue = [32, 88]\nclass = 0", fillcolor="#81c1ee"] ;
310 -> 311 ;
312 [label="h1_temp_max <= 36.45\ngini = 0.38\nsamples = 76\nvalue = [30, 88]\nclass = 0", fillcolor="#7cbeee"] ;
311 -> 312 ;
313 [label="d1_hematocrit_max <= 37.15\ngini = 0.5\nsamples = 18\nvalue = [11, 13]\nclass = 0", fillcolor="#e1f0fb"] ;
312 -> 313 ;
314 [label="d1_mbp_noninvasive_max <= 134.5\ngini = 0.41\nsamples = 12\nvalue = [10, 4]\nclass = [", fillcolor="#efb388"] ;
313 -> 314 ;
315 [label="d1_bun_max <= 12.0\ngini = 0.17\nsamples = 11\nvalue = [10, 1]\nclass = [", fillcolor="#e88e4d"] ;
314 -> 315 ;
316 [label="gini = 0.0\nsamples = 1\nvalue = [0, 1]\nclass = 0", fillcolor="#399de5"] ;
315 -> 316 ;
317 [label="gini = 0.0\nsamples = 10\nvalue = [10, 0]\nclass = [", fillcolor="#e58139"] ;
315 -> 317 ;
318 [label="gini = 0.0\nsamples = 1\nvalue = [0, 3]\nclass = 0", fillcolor="#399de5"] ;
314 -> 318 ;
319 [label="d1_sysbp_invasive_max <= 155.94\ngini = 0.18\nsamples = 6\nvalue = [1, 9]\nclass = 0", fillcolor="#4fa8e8"] ;
313 -> 319 ;
320 [label="gini = 0.0\nsamples = 5\nvalue = [0, 9]\nclass = 0", fillcolor="#399de5"] ;
319 -> 320 ;
321 [label="gini = 0.0\nsamples = 1\nvalue = [1, 0]\nclass = [", fillcolor="#e58139"] ;
319 -> 321 ;
322 [label="creatinine_apache <= 0.75\ngini = 0.32\nsamples = 58\nvalue = [19, 75]\nclass = 0", fillcolor="#6bb6ec"] ;
312 -> 322 ;
323 [label="icu_id <= 303.0\ngini = 0.14\nsamples = 20\nvalue = [3, 37]\nclass = 0", fillcolor="#49a5e7"] ;
322 -> 323 ;
324 [label="gini = 0.0\nsamples = 1\nvalue = [1, 0]\nclass = [", fillcolor="#e58139"] ;
323 -> 324 ;
325 [label="hematocrit_apache <= 19.2\ngini = 0.1\nsamples = 19\nvalue = [2, 37]\nclass = 0", fillcolor="#44a2e6"] ;
323 -> 325 ;
326 [label="gini = 0.0\nsamples = 1\nvalue = [1, 0]\nclass = [", fillcolor="#e58139"] ;
325 -> 326 ;
327 [label="temp_apache <= 37.2\ngini = 0.05\nsamples = 18\nvalue = [1, 37]\nclass = 0", fillcolor="#3ea0e6"] ;
325 -> 327 ;
328 [label="gini = 0.0\nsamples = 17\nvalue = [0, 37]\nclass = 0", fillcolor="#399de5"] ;
327 -> 328 ;
329 [label="gini = 0.0\nsamples = 1\nvalue = [1, 0]\nclass = [", fillcolor="#e58139"] ;
327 -> 329 ;
330 [label="d1_sysbp_noninvasive_min <= 110.5\ngini = 0.42\nsamples = 38\nvalue = [16, 38]\nclass = 0", fillcolor="#8cc6f0"] ;
322 -> 330 ;
331 [label="map_apache <= 135.5\ngini = 0.5\nsamples = 26\nvalue = [15, 17]\nclass = 0", fillcolor="#e8f3fc"] ;
330 -> 331 ;
332 [label="d1_wbc_min <= 14.55\ngini = 0.49\nsamples = 22\nvalue = [15, 12]\nclass = [", fillcolor="#fae6d7"] ;
331 -> 332 ;
333 [label="h1_resprate_min <= 17.57\ngini = 0.42\nsamples = 17\nvalue = [14, 6]\nclass = [", fillcolor="#f0b78e"] ;
332 -> 333 ;
334 [label="icu_id <= 908.5\ngini = 0.24\nsamples = 11\nvalue = [12, 2]\nclass = [", fillcolor="#e9965a"] ;
333 -> 334 ;
335 [label="d1_mbp_noninvasive_max <= 122.0\ngini = 0.14\nsamples = 10\nvalue = [12, 1]\nclass = [", fillcolor="#e78c49"] ;
334 -> 335 ;
336 [label="gini = 0.0\nsamples = 8\nvalue = [11, 0]\nclass = [", fillcolor="#e58139"] ;
335 -> 336 ;
337 [label="d1_resprate_min <= 11.0\ngini = 0.5\nsamples = 2\nvalue = [1, 1]\nclass = [", fillcolor="#ffffff"] ;
335 -> 337 ;
338 [label="gini = 0.0\nsamples = 1\nvalue = [1, 0]\nclass = [", fillcolor="#e58139"] ;
337 -> 338 ;
339 [label="gini = 0.0\nsamples = 1\nvalue = [0, 1]\nclass = 0", fillcolor="#399de5"] ;
337 -> 339 ;
340 [label="gini = 0.0\nsamples = 1\nvalue = [0, 1]\nclass = 0", fillcolor="#399de5"] ;
334 -> 340 ;
341 [label="d1_calcium_max <= 8.45\ngini = 0.44\nsamples = 6\nvalue = [2, 4]\nclass = 0", fillcolor="#9ccef2"] ;
333 -> 341 ;
342 [label="gini = 0.0\nsamples = 2\nvalue = [2, 0]\nclass = [", fillcolor="#e58139"] ;
341 -> 342 ;
343 [label="gini = 0.0\nsamples = 4\nvalue = [0, 4]\nclass = 0", fillcolor="#399de5"] ;
341 -> 343 ;
344 [label="d1_hematocrit_max <= 32.7\ngini = 0.24\nsamples = 5\nvalue = [1, 6]\nclass = 0", fillcolor="#5aade9"] ;
332 -> 344 ;
345 [label="gini = 0.0\nsamples = 1\nvalue = [1, 0]\nclass = [", fillcolor="#e58139"] ;
344 -> 345 ;
346 [label="gini = 0.0\nsamples = 4\nvalue = [0, 6]\nclass = 0", fillcolor="#399de5"] ;
344 -> 346 ;
347 [label="gini = 0.0\nsamples = 4\nvalue = [0, 5]\nclass = 0", fillcolor="#399de5"] ;
331 -> 347 ;
348 [label="d1_wbc_min <= 24.1\ngini = 0.09\nsamples = 12\nvalue = [1, 21]\nclass = 0", fillcolor="#42a2e6"] ;
330 -> 348 ;
349 [label="gini = 0.0\nsamples = 11\nvalue = [0, 21]\nclass = 0", fillcolor="#399de5"] ;
348 -> 349 ;
350 [label="gini = 0.0\nsamples = 1\nvalue = [1, 0]\nclass = [", fillcolor="#e58139"] ;
348 -> 350 ;
351 [label="gini = 0.0\nsamples = 2\nvalue = [2, 0]\nclass = [", fillcolor="#e58139"] ;
311 -> 351 ;
352 [label="gini = 0.0\nsamples = 1\nvalue = [3, 0]\nclass = [", fillcolor="#e58139"] ;
310 -> 352 ;
353 [label="weight <= 78.4\ngini = 0.13\nsamples = 8\nvalue = [13, 1]\nclass = [", fillcolor="#e78b48"] ;
301 -> 353 ;
354 [label="gini = 0.0\nsamples = 7\nvalue = [13, 0]\nclass = [", fillcolor="#e58139"] ;
353 -> 354 ;
355 [label="gini = 0.0\nsamples = 1\nvalue = [0, 1]\nclass = 0", fillcolor="#399de5"] ;
353 -> 355 ;
356 [label="h1_hematocrit_min <= 27.0\ngini = 0.17\nsamples = 7\nvalue = [10, 1]\nclass = [", fillcolor="#e88e4d"] ;
300 -> 356 ;
357 [label="gini = 0.0\nsamples = 1\nvalue = [0, 1]\nclass = 0", fillcolor="#399de5"] ;
356 -> 357 ;
358 [label="gini = 0.0\nsamples = 6\nvalue = [10, 0]\nclass = [", fillcolor="#e58139"] ;
356 -> 358 ;
359 [label="height <= 190.42\ngini = 0.09\nsamples = 12\nvalue = [19, 1]\nclass = [", fillcolor="#e68843"] ;
299 -> 359 ;
360 [label="gini = 0.0\nsamples = 11\nvalue = [19, 0]\nclass = [", fillcolor="#e58139"] ;
359 -> 360 ;
361 [label="gini = 0.0\nsamples = 1\nvalue = [0, 1]\nclass = 0", fillcolor="#399de5"] ;
359 -> 361 ;
362 [label="h1_hemaglobin_min <= 12.45\ngini = 0.5\nsamples = 165\nvalue = [134, 123]\nclass = [", fillcolor="#fdf5ef"] ;
2 -> 362 ;
363 [label="age <= 56.5\ngini = 0.5\nsamples = 143\nvalue = [104, 119]\nclass = 0", fillcolor="#e6f3fc"] ;
362 -> 363 ;
364 [label="d1_wbc_max <= 5.95\ngini = 0.38\nsamples = 54\nvalue = [23, 68]\nclass = 0", fillcolor="#7cbeee"] ;
363 -> 364 ;
365 [label="d1_hco3_max <= 23.5\ngini = 0.24\nsamples = 4\nvalue = [6, 1]\nclass = [", fillcolor="#e9965a"] ;
364 -> 365 ;
366 [label="gini = 0.0\nsamples = 1\nvalue = [0, 1]\nclass = 0", fillcolor="#399de5"] ;
365 -> 366 ;
367 [label="gini = 0.0\nsamples = 3\nvalue = [6, 0]\nclass = [", fillcolor="#e58139"] ;
365 -> 367 ;
368 [label="h1_diasbp_invasive_max <= 81.5\ngini = 0.32\nsamples = 50\nvalue = [17, 67]\nclass = 0", fillcolor="#6bb6ec"] ;
364 -> 368 ;
369 [label="d1_mbp_min <= 90.0\ngini = 0.28\nsamples = 47\nvalue = [13, 65]\nclass = 0", fillcolor="#61b1ea"] ;
368 -> 369 ;
370 [label="paco2_for_ph_apache <= 25.0\ngini = 0.26\nsamples = 46\nvalue = [12, 65]\nclass = 0", fillcolor="#5eafea"] ;
369 -> 370 ;
371 [label="gini = 0.0\nsamples = 2\nvalue = [2, 0]\nclass = [", fillcolor="#e58139"] ;
370 -> 371 ;
372 [label="d1_resprate_max <= 15.5\ngini = 0.23\nsamples = 44\nvalue = [10, 65]\nclass = 0", fillcolor="#57ace9"] ;
370 -> 372 ;
373 [label="gini = 0.0\nsamples = 2\nvalue = [2, 0]\nclass = [", fillcolor="#e58139"] ;
372 -> 373 ;
374 [label="d1_glucose_max <= 231.5\ngini = 0.2\nsamples = 42\nvalue = [8, 65]\nclass = 0", fillcolor="#51a9e8"] ;
372 -> 374 ;
375 [label="d1_sodium_min <= 135.5\ngini = 0.38\nsamples = 3\nvalue = [3, 1]\nclass = [", fillcolor="#eeab7b"] ;
374 -> 375 ;
376 [label="gini = 0.0\nsamples = 2\nvalue = [3, 0]\nclass = [", fillcolor="#e58139"] ;
375 -> 376 ;
377 [label="gini = 0.0\nsamples = 1\nvalue = [0, 1]\nclass = 0", fillcolor="#399de5"] ;
375 -> 377 ;
378 [label="h1_hco3_min <= 10.5\ngini = 0.13\nsamples = 39\nvalue = [5, 64]\nclass = 0", fillcolor="#48a5e7"] ;
374 -> 378 ;
379 [label="d1_mbp_max <= 94.0\ngini = 0.5\nsamples = 2\nvalue = [2, 2]\nclass = [", fillcolor="#ffffff"] ;
378 -> 379 ;
380 [label="gini = 0.0\nsamples = 1\nvalue = [0, 2]\nclass = 0", fillcolor="#399de5"] ;
379 -> 380 ;
381 [label="gini = 0.0\nsamples = 1\nvalue = [2, 0]\nclass = [", fillcolor="#e58139"] ;
379 -> 381 ;
382 [label="h1_diasbp_invasive_max <= 59.5\ngini = 0.09\nsamples = 37\nvalue = [3, 62]\nclass = 0", fillcolor="#43a2e6"] ;
378 -> 382 ;
383 [label="h1_sysbp_max <= 131.0\ngini = 0.44\nsamples = 2\nvalue = [1, 2]\nclass = 0", fillcolor="#9ccef2"] ;
382 -> 383 ;
384 [label="gini = 0.0\nsamples = 1\nvalue = [1, 0]\nclass = [", fillcolor="#e58139"] ;
383 -> 384 ;
385 [label="gini = 0.0\nsamples = 1\nvalue = [0, 2]\nclass = 0", fillcolor="#399de5"] ;
383 -> 385 ;
386 [label="d1_hematocrit_min <= 34.1\ngini = 0.06\nsamples = 35\nvalue = [2, 60]\nclass = 0", fillcolor="#40a0e6"] ;
382 -> 386 ;
387 [label="gini = 0.0\nsamples = 24\nvalue = [0, 43]\nclass = 0", fillcolor="#399de5"] ;
386 -> 387 ;
388 [label="d1_hematocrit_max <= 34.3\ngini = 0.19\nsamples = 11\nvalue = [2, 17]\nclass = 0", fillcolor="#50a9e8"] ;
386 -> 388 ;
389 [label="gini = 0.0\nsamples = 1\nvalue = [2, 0]\nclass = [", fillcolor="#e58139"] ;
388 -> 389 ;
390 [label="gini = 0.0\nsamples = 10\nvalue = [0, 17]\nclass = 0", fillcolor="#399de5"] ;
388 -> 390 ;
391 [label="gini = 0.0\nsamples = 1\nvalue = [1, 0]\nclass = [", fillcolor="#e58139"] ;
369 -> 391 ;
392 [label="d1_arterial_ph_max <= 7.35\ngini = 0.44\nsamples = 3\nvalue = [4, 2]\nclass = [", fillcolor="#f2c09c"] ;
368 -> 392 ;
393 [label="gini = 0.0\nsamples = 2\nvalue = [4, 0]\nclass = [", fillcolor="#e58139"] ;
392 -> 393 ;
394 [label="gini = 0.0\nsamples = 1\nvalue = [0, 2]\nclass = 0", fillcolor="#399de5"] ;
392 -> 394 ;
395 [label="d1_mbp_min <= 78.5\ngini = 0.47\nsamples = 89\nvalue = [81, 51]\nclass = [", fillcolor="#f5d0b6"] ;
363 -> 395 ;
396 [label="bmi <= 23.08\ngini = 0.44\nsamples = 80\nvalue = [78, 37]\nclass = [", fillcolor="#f1bd97"] ;
395 -> 396 ;
397 [label="d1_temp_min <= 37.05\ngini = 0.25\nsamples = 36\nvalue = [47, 8]\nclass = [", fillcolor="#e9965b"] ;
396 -> 397 ;
398 [label="d1_hemaglobin_min <= 5.6\ngini = 0.18\nsamples = 33\nvalue = [45, 5]\nclass = [", fillcolor="#e88f4f"] ;
397 -> 398 ;
399 [label="gini = 0.0\nsamples = 1\nvalue = [0, 1]\nclass = 0", fillcolor="#399de5"] ;
398 -> 399 ;
400 [label="d1_sysbp_noninvasive_max <= 195.5\ngini = 0.15\nsamples = 32\nvalue = [45, 4]\nclass = [", fillcolor="#e78c4b"] ;
398 -> 400 ;
401 [label="hospital_admit_source <= 13.5\ngini = 0.12\nsamples = 31\nvalue = [45, 3]\nclass = [", fillcolor="#e78946"] ;
400 -> 401 ;
402 [label="gini = 0.0\nsamples = 24\nvalue = [39, 0]\nclass = [", fillcolor="#e58139"] ;
401 -> 402 ;
403 [label="hematocrit_apache <= 33.55\ngini = 0.44\nsamples = 7\nvalue = [6, 3]\nclass = [", fillcolor="#f2c09c"] ;
401 -> 403 ;
404 [label="hospital_id <= 21.0\ngini = 0.38\nsamples = 4\nvalue = [1, 3]\nclass = 0", fillcolor="#7bbeee"] ;
403 -> 404 ;
405 [label="gini = 0.0\nsamples = 1\nvalue = [1, 0]\nclass = [", fillcolor="#e58139"] ;
404 -> 405 ;
406 [label="gini = 0.0\nsamples = 3\nvalue = [0, 3]\nclass = 0", fillcolor="#399de5"] ;
404 -> 406 ;
407 [label="gini = 0.0\nsamples = 3\nvalue = [5, 0]\nclass = [", fillcolor="#e58139"] ;
403 -> 407 ;
408 [label="gini = 0.0\nsamples = 1\nvalue = [0, 1]\nclass = 0", fillcolor="#399de5"] ;
400 -> 408 ;
409 [label="d1_lactate_max <= 3.75\ngini = 0.48\nsamples = 3\nvalue = [2, 3]\nclass = 0", fillcolor="#bddef6"] ;
397 -> 409 ;
410 [label="gini = 0.0\nsamples = 2\nvalue = [0, 3]\nclass = 0", fillcolor="#399de5"] ;
409 -> 410 ;
411 [label="gini = 0.0\nsamples = 1\nvalue = [2, 0]\nclass = [", fillcolor="#e58139"] ;
409 -> 411 ;
412 [label="pre_icu_los_days <= 0.0\ngini = 0.5\nsamples = 44\nvalue = [31, 29]\nclass = [", fillcolor="#fdf7f2"] ;
396 -> 412 ;
413 [label="gini = 0.0\nsamples = 4\nvalue = [0, 7]\nclass = 0", fillcolor="#399de5"] ;
412 -> 413 ;
414 [label="d1_heartrate_min <= 81.5\ngini = 0.49\nsamples = 40\nvalue = [31, 22]\nclass = [", fillcolor="#f7dac6"] ;
412 -> 414 ;
415 [label="resprate_apache <= 7.5\ngini = 0.38\nsamples = 31\nvalue = [27, 9]\nclass = [", fillcolor="#eeab7b"] ;
414 -> 415 ;
416 [label="h1_diasbp_invasive_min <= 37.5\ngini = 0.28\nsamples = 5\nvalue = [1, 5]\nclass = 0", fillcolor="#61b1ea"] ;
415 -> 416 ;
417 [label="gini = 0.0\nsamples = 1\nvalue = [1, 0]\nclass = [", fillcolor="#e58139"] ;
416 -> 417 ;
418 [label="gini = 0.0\nsamples = 4\nvalue = [0, 5]\nclass = 0", fillcolor="#399de5"] ;
416 -> 418 ;
419 [label="d1_temp_min <= 36.84\ngini = 0.23\nsamples = 26\nvalue = [26, 4]\nclass = [", fillcolor="#e99457"] ;
415 -> 419 ;
420 [label="d1_lactate_max <= 1.6\ngini = 0.07\nsamples = 24\nvalue = [26, 1]\nclass = [", fillcolor="#e68641"] ;
419 -> 420 ;
421 [label="gini = 0.0\nsamples = 1\nvalue = [0, 1]\nclass = 0", fillcolor="#399de5"] ;
420 -> 421 ;
422 [label="gini = 0.0\nsamples = 23\nvalue = [26, 0]\nclass = [", fillcolor="#e58139"] ;
420 -> 422 ;
423 [label="gini = 0.0\nsamples = 2\nvalue = [0, 3]\nclass = 0", fillcolor="#399de5"] ;
419 -> 423 ;
424 [label="hematocrit_apache <= 36.8\ngini = 0.36\nsamples = 9\nvalue = [4, 13]\nclass = 0", fillcolor="#76bbed"] ;
414 -> 424 ;
425 [label="h1_sysbp_noninvasive_min <= 138.0\ngini = 0.23\nsamples = 8\nvalue = [2, 13]\nclass = 0", fillcolor="#57ace9"] ;
424 -> 425 ;
426 [label="d1_mbp_max <= 130.5\ngini = 0.13\nsamples = 7\nvalue = [1, 13]\nclass = 0", fillcolor="#48a5e7"] ;
425 -> 426 ;
427 [label="gini = 0.0\nsamples = 6\nvalue = [0, 13]\nclass = 0", fillcolor="#399de5"] ;
426 -> 427 ;
428 [label="gini = 0.0\nsamples = 1\nvalue = [1, 0]\nclass = [", fillcolor="#e58139"] ;
426 -> 428 ;
429 [label="gini = 0.0\nsamples = 1\nvalue = [1, 0]\nclass = [", fillcolor="#e58139"] ;
425 -> 429 ;
430 [label="gini = 0.0\nsamples = 1\nvalue = [2, 0]\nclass = [", fillcolor="#e58139"] ;
424 -> 430 ;
431 [label="d1_albumin_max <= 3.03\ngini = 0.29\nsamples = 9\nvalue = [3, 14]\nclass = 0", fillcolor="#63b2eb"] ;
395 -> 431 ;
432 [label="h1_arterial_po2_min <= 155.56\ngini = 0.12\nsamples = 7\nvalue = [1, 14]\nclass = 0", fillcolor="#47a4e7"] ;
431 -> 432 ;
433 [label="gini = 0.0\nsamples = 6\nvalue = [0, 14]\nclass = 0", fillcolor="#399de5"] ;
432 -> 433 ;
434 [label="gini = 0.0\nsamples = 1\nvalue = [1, 0]\nclass = [", fillcolor="#e58139"] ;
432 -> 434 ;
435 [label="gini = 0.0\nsamples = 2\nvalue = [2, 0]\nclass = [", fillcolor="#e58139"] ;
431 -> 435 ;
436 [label="d1_diasbp_min <= 83.5\ngini = 0.21\nsamples = 22\nvalue = [30, 4]\nclass = [", fillcolor="#e89253"] ;
362 -> 436 ;
437 [label="h1_albumin_max <= 3.85\ngini = 0.12\nsamples = 21\nvalue = [30, 2]\nclass = [", fillcolor="#e78946"] ;
436 -> 437 ;
438 [label="gini = 0.0\nsamples = 19\nvalue = [29, 0]\nclass = [", fillcolor="#e58139"] ;
437 -> 438 ;
439 [label="h1_mbp_noninvasive_min <= 93.0\ngini = 0.44\nsamples = 2\nvalue = [1, 2]\nclass = 0", fillcolor="#9ccef2"] ;
437 -> 439 ;
440 [label="gini = 0.0\nsamples = 1\nvalue = [1, 0]\nclass = [", fillcolor="#e58139"] ;
439 -> 440 ;
441 [label="gini = 0.0\nsamples = 1\nvalue = [0, 2]\nclass = 0", fillcolor="#399de5"] ;
439 -> 441 ;
442 [label="gini = 0.0\nsamples = 1\nvalue = [0, 2]\nclass = 0", fillcolor="#399de5"] ;
436 -> 442 ;
443 [label="h1_albumin_min <= 3.9\ngini = 0.39\nsamples = 467\nvalue = [546, 199]\nclass = [", fillcolor="#eeaf81"] ;
1 -> 443 ;
444 [label="d1_glucose_max <= 207.5\ngini = 0.38\nsamples = 464\nvalue = [546, 191]\nclass = [", fillcolor="#eead7e"] ;
443 -> 444 ;
445 [label="h1_temp_max <= 33.45\ngini = 0.26\nsamples = 332\nvalue = [453, 82]\nclass = [", fillcolor="#ea985d"] ;
444 -> 445 ;
446 [label="glucose_apache <= 93.5\ngini = 0.44\nsamples = 4\nvalue = [3, 6]\nclass = 0", fillcolor="#9ccef2"] ;
445 -> 446 ;
447 [label="gini = 0.0\nsamples = 2\nvalue = [3, 0]\nclass = [", fillcolor="#e58139"] ;
446 -> 447 ;
448 [label="gini = 0.0\nsamples = 2\nvalue = [0, 6]\nclass = 0", fillcolor="#399de5"] ;
446 -> 448 ;
449 [label="d1_hematocrit_min <= 29.45\ngini = 0.25\nsamples = 328\nvalue = [450, 76]\nclass = [", fillcolor="#e9965a"] ;
445 -> 449 ;
450 [label="h1_heartrate_max <= 109.5\ngini = 0.33\nsamples = 142\nvalue = [178, 48]\nclass = [", fillcolor="#eca36e"] ;
449 -> 450 ;
451 [label="bmi <= 24.84\ngini = 0.4\nsamples = 113\nvalue = [127, 48]\nclass = [", fillcolor="#efb184"] ;
450 -> 451 ;
452 [label="glucose_apache <= 63.0\ngini = 0.28\nsamples = 81\nvalue = [103, 21]\nclass = [", fillcolor="#ea9b61"] ;
451 -> 452 ;
453 [label="gender <= 0.5\ngini = 0.5\nsamples = 6\nvalue = [5, 6]\nclass = 0", fillcolor="#deeffb"] ;
452 -> 453 ;
454 [label="gini = 0.0\nsamples = 2\nvalue = [0, 5]\nclass = 0", fillcolor="#399de5"] ;
453 -> 454 ;
455 [label="h1_inr_max <= 1.4\ngini = 0.28\nsamples = 4\nvalue = [5, 1]\nclass = [", fillcolor="#ea9a61"] ;
453 -> 455 ;
456 [label="gini = 0.0\nsamples = 1\nvalue = [0, 1]\nclass = 0", fillcolor="#399de5"] ;
455 -> 456 ;
457 [label="gini = 0.0\nsamples = 3\nvalue = [5, 0]\nclass = [", fillcolor="#e58139"] ;
455 -> 457 ;
458 [label="d1_arterial_po2_min <= 209.5\ngini = 0.23\nsamples = 75\nvalue = [98, 15]\nclass = [", fillcolor="#e99457"] ;
452 -> 458 ;
459 [label="d1_bilirubin_min <= 0.35\ngini = 0.21\nsamples = 74\nvalue = [98, 13]\nclass = [", fillcolor="#e89253"] ;
458 -> 459 ;
460 [label="h1_platelets_max <= 195.77\ngini = 0.44\nsamples = 3\nvalue = [1, 2]\nclass = 0", fillcolor="#9ccef2"] ;
459 -> 460 ;
461 [label="gini = 0.0\nsamples = 2\nvalue = [0, 2]\nclass = 0", fillcolor="#399de5"] ;
460 -> 461 ;
462 [label="gini = 0.0\nsamples = 1\nvalue = [1, 0]\nclass = [", fillcolor="#e58139"] ;
460 -> 462 ;
463 [label="d1_temp_max <= 39.5\ngini = 0.18\nsamples = 71\nvalue = [97, 11]\nclass = [", fillcolor="#e88f4f"] ;
459 -> 463 ;
464 [label="h1_platelets_min <= 272.0\ngini = 0.17\nsamples = 70\nvalue = [97, 10]\nclass = [", fillcolor="#e88e4d"] ;
463 -> 464 ;
465 [label="h1_calcium_max <= 7.8\ngini = 0.14\nsamples = 69\nvalue = [97, 8]\nclass = [", fillcolor="#e78b49"] ;
464 -> 465 ;
466 [label="gini = 0.0\nsamples = 1\nvalue = [0, 1]\nclass = 0", fillcolor="#399de5"] ;
465 -> 466 ;
467 [label="pao2_apache <= 81.95\ngini = 0.13\nsamples = 68\nvalue = [97, 7]\nclass = [", fillcolor="#e78a47"] ;
465 -> 467 ;
468 [label="hospital_id <= 89.0\ngini = 0.48\nsamples = 5\nvalue = [2, 3]\nclass = 0", fillcolor="#bddef6"] ;
467 -> 468 ;
469 [label="gini = 0.0\nsamples = 3\nvalue = [0, 3]\nclass = 0", fillcolor="#399de5"] ;
468 -> 469 ;
470 [label="gini = 0.0\nsamples = 2\nvalue = [2, 0]\nclass = [", fillcolor="#e58139"] ;
468 -> 470 ;
471 [label="d1_albumin_max <= 1.55\ngini = 0.08\nsamples = 63\nvalue = [95, 4]\nclass = [", fillcolor="#e68641"] ;
467 -> 471 ;
472 [label="gini = 0.0\nsamples = 1\nvalue = [0, 1]\nclass = 0", fillcolor="#399de5"] ;
471 -> 472 ;
473 [label="d1_hematocrit_min <= 17.05\ngini = 0.06\nsamples = 62\nvalue = [95, 3]\nclass = [", fillcolor="#e6853f"] ;
471 -> 473 ;
474 [label="d1_bun_max <= 90.0\ngini = 0.5\nsamples = 2\nvalue = [2, 2]\nclass = [", fillcolor="#ffffff"] ;
473 -> 474 ;
475 [label="gini = 0.0\nsamples = 1\nvalue = [0, 2]\nclass = 0", fillcolor="#399de5"] ;
474 -> 475 ;
476 [label="gini = 0.0\nsamples = 1\nvalue = [2, 0]\nclass = [", fillcolor="#e58139"] ;
474 -> 476 ;
477 [label="d1_mbp_noninvasive_max <= 84.0\ngini = 0.02\nsamples = 60\nvalue = [93, 1]\nclass = [", fillcolor="#e5823b"] ;
473 -> 477 ;
478 [label="icu_id <= 1063.5\ngini = 0.09\nsamples = 14\nvalue = [19, 1]\nclass = [", fillcolor="#e68843"] ;
477 -> 478 ;
479 [label="gini = 0.0\nsamples = 13\nvalue = [19, 0]\nclass = [", fillcolor="#e58139"] ;
478 -> 479 ;
480 [label="gini = 0.0\nsamples = 1\nvalue = [0, 1]\nclass = 0", fillcolor="#399de5"] ;
478 -> 480 ;
481 [label="gini = 0.0\nsamples = 46\nvalue = [74, 0]\nclass = [", fillcolor="#e58139"] ;
477 -> 481 ;
482 [label="gini = 0.0\nsamples = 1\nvalue = [0, 2]\nclass = 0", fillcolor="#399de5"] ;
464 -> 482 ;
483 [label="gini = 0.0\nsamples = 1\nvalue = [0, 1]\nclass = 0", fillcolor="#399de5"] ;
463 -> 483 ;
484 [label="gini = 0.0\nsamples = 1\nvalue = [0, 2]\nclass = 0", fillcolor="#399de5"] ;
458 -> 484 ;
485 [label="d1_bun_min <= 28.0\ngini = 0.5\nsamples = 32\nvalue = [24, 27]\nclass = 0", fillcolor="#e9f4fc"] ;
451 -> 485 ;
486 [label="hospital_admit_source <= 1.5\ngini = 0.34\nsamples = 10\nvalue = [11, 3]\nclass = [", fillcolor="#eca36f"] ;
485 -> 486 ;
487 [label="gini = 0.0\nsamples = 1\nvalue = [0, 2]\nclass = 0", fillcolor="#399de5"] ;
486 -> 487 ;
488 [label="d1_hematocrit_max <= 27.1\ngini = 0.15\nsamples = 9\nvalue = [11, 1]\nclass = [", fillcolor="#e78c4b"] ;
486 -> 488 ;
489 [label="gini = 0.0\nsamples = 1\nvalue = [0, 1]\nclass = 0", fillcolor="#399de5"] ;
488 -> 489 ;
490 [label="gini = 0.0\nsamples = 8\nvalue = [11, 0]\nclass = [", fillcolor="#e58139"] ;
488 -> 490 ;
491 [label="d1_heartrate_min <= 80.0\ngini = 0.46\nsamples = 22\nvalue = [13, 24]\nclass = 0", fillcolor="#a4d2f3"] ;
485 -> 491 ;
492 [label="creatinine_apache <= 2.04\ngini = 0.4\nsamples = 19\nvalue = [9, 24]\nclass = 0", fillcolor="#83c2ef"] ;
491 -> 492 ;
493 [label="d1_bun_min <= 57.5\ngini = 0.35\nsamples = 8\nvalue = [7, 2]\nclass = [", fillcolor="#eca572"] ;
492 -> 493 ;
494 [label="gini = 0.0\nsamples = 6\nvalue = [7, 0]\nclass = [", fillcolor="#e58139"] ;
493 -> 494 ;
495 [label="gini = 0.0\nsamples = 2\nvalue = [0, 2]\nclass = 0", fillcolor="#399de5"] ;
493 -> 495 ;
496 [label="h1_diasbp_noninvasive_min <= 42.5\ngini = 0.15\nsamples = 11\nvalue = [2, 22]\nclass = 0", fillcolor="#4ba6e7"] ;
492 -> 496 ;
497 [label="h1_lactate_min <= 2.28\ngini = 0.44\nsamples = 3\nvalue = [2, 1]\nclass = [", fillcolor="#f2c09c"] ;
496 -> 497 ;
498 [label="gini = 0.0\nsamples = 1\nvalue = [0, 1]\nclass = 0", fillcolor="#399de5"] ;
497 -> 498 ;
499 [label="gini = 0.0\nsamples = 2\nvalue = [2, 0]\nclass = [", fillcolor="#e58139"] ;
497 -> 499 ;
500 [label="gini = 0.0\nsamples = 8\nvalue = [0, 21]\nclass = 0", fillcolor="#399de5"] ;
496 -> 500 ;
501 [label="gini = 0.0\nsamples = 3\nvalue = [4, 0]\nclass = [", fillcolor="#e58139"] ;
491 -> 501 ;
502 [label="gini = 0.0\nsamples = 29\nvalue = [51, 0]\nclass = [", fillcolor="#e58139"] ;
450 -> 502 ;
503 [label="d1_mbp_invasive_min <= 52.0\ngini = 0.17\nsamples = 186\nvalue = [272, 28]\nclass = [", fillcolor="#e88e4d"] ;
449 -> 503 ;
504 [label="map_apache <= 40.5\ngini = 0.43\nsamples = 11\nvalue = [15, 7]\nclass = [", fillcolor="#f1bc95"] ;
503 -> 504 ;
505 [label="gini = 0.0\nsamples = 1\nvalue = [0, 4]\nclass = 0", fillcolor="#399de5"] ;
504 -> 505 ;
506 [label="apache_2_diagnosis <= 106.0\ngini = 0.28\nsamples = 10\nvalue = [15, 3]\nclass = [", fillcolor="#ea9a61"] ;
504 -> 506 ;
507 [label="gini = 0.0\nsamples = 1\nvalue = [0, 3]\nclass = 0", fillcolor="#399de5"] ;
506 -> 507 ;
508 [label="gini = 0.0\nsamples = 9\nvalue = [15, 0]\nclass = [", fillcolor="#e58139"] ;
506 -> 508 ;
509 [label="h1_sysbp_min <= 192.0\ngini = 0.14\nsamples = 175\nvalue = [257, 21]\nclass = [", fillcolor="#e78b49"] ;
503 -> 509 ;
510 [label="icu_id <= 608.0\ngini = 0.13\nsamples = 174\nvalue = [257, 20]\nclass = [", fillcolor="#e78b48"] ;
509 -> 510 ;
511 [label="h1_diasbp_noninvasive_min <= 33.0\ngini = 0.27\nsamples = 62\nvalue = [80, 15]\nclass = [", fillcolor="#ea995e"] ;
510 -> 511 ;
512 [label="gini = 0.0\nsamples = 2\nvalue = [0, 4]\nclass = 0", fillcolor="#399de5"] ;
511 -> 512 ;
513 [label="d1_temp_max <= 35.5\ngini = 0.21\nsamples = 60\nvalue = [80, 11]\nclass = [", fillcolor="#e99254"] ;
511 -> 513 ;
514 [label="gini = 0.0\nsamples = 1\nvalue = [0, 2]\nclass = 0", fillcolor="#399de5"] ;
513 -> 514 ;
515 [label="temp_apache <= 37.1\ngini = 0.18\nsamples = 59\nvalue = [80, 9]\nclass = [", fillcolor="#e88f4f"] ;
513 -> 515 ;
516 [label="h1_glucose_max <= 78.5\ngini = 0.17\nsamples = 58\nvalue = [80, 8]\nclass = [", fillcolor="#e88e4d"] ;
515 -> 516 ;
517 [label="gini = 0.0\nsamples = 1\nvalue = [0, 2]\nclass = 0", fillcolor="#399de5"] ;
516 -> 517 ;
518 [label="d1_mbp_noninvasive_min <= 85.5\ngini = 0.13\nsamples = 57\nvalue = [80, 6]\nclass = [", fillcolor="#e78a48"] ;
516 -> 518 ;
519 [label="d1_arterial_ph_min <= 7.23\ngini = 0.09\nsamples = 55\nvalue = [80, 4]\nclass = [", fillcolor="#e68743"] ;
518 -> 519 ;
520 [label="d1_calcium_min <= 8.4\ngini = 0.44\nsamples = 3\nvalue = [1, 2]\nclass = 0", fillcolor="#9ccef2"] ;
519 -> 520 ;
521 [label="gini = 0.0\nsamples = 2\nvalue = [0, 2]\nclass = 0", fillcolor="#399de5"] ;
520 -> 521 ;
522 [label="gini = 0.0\nsamples = 1\nvalue = [1, 0]\nclass = [", fillcolor="#e58139"] ;
520 -> 522 ;
523 [label="d1_potassium_min <= 4.85\ngini = 0.05\nsamples = 52\nvalue = [79, 2]\nclass = [", fillcolor="#e6843e"] ;
519 -> 523 ;
524 [label="gini = 0.0\nsamples = 45\nvalue = [69, 0]\nclass = [", fillcolor="#e58139"] ;
523 -> 524 ;
525 [label="d1_inr_min <= 1.15\ngini = 0.28\nsamples = 7\nvalue = [10, 2]\nclass = [", fillcolor="#ea9a61"] ;
523 -> 525 ;
526 [label="gini = 0.0\nsamples = 1\nvalue = [0, 1]\nclass = 0", fillcolor="#399de5"] ;
525 -> 526 ;
527 [label="age <= 78.5\ngini = 0.17\nsamples = 6\nvalue = [10, 1]\nclass = [", fillcolor="#e88e4d"] ;
525 -> 527 ;
528 [label="gini = 0.0\nsamples = 5\nvalue = [10, 0]\nclass = [", fillcolor="#e58139"] ;
527 -> 528 ;
529 [label="gini = 0.0\nsamples = 1\nvalue = [0, 1]\nclass = 0", fillcolor="#399de5"] ;
527 -> 529 ;
530 [label="gini = 0.0\nsamples = 2\nvalue = [0, 2]\nclass = 0", fillcolor="#399de5"] ;
518 -> 530 ;
531 [label="gini = 0.0\nsamples = 1\nvalue = [0, 1]\nclass = 0", fillcolor="#399de5"] ;
515 -> 531 ;
532 [label="d1_mbp_invasive_max <= 69.5\ngini = 0.05\nsamples = 112\nvalue = [177, 5]\nclass = [", fillcolor="#e6853f"] ;
510 -> 532 ;
533 [label="gini = 0.0\nsamples = 1\nvalue = [0, 1]\nclass = 0", fillcolor="#399de5"] ;
532 -> 533 ;
534 [label="d1_glucose_max <= 205.5\ngini = 0.04\nsamples = 111\nvalue = [177, 4]\nclass = [", fillcolor="#e6843d"] ;
532 -> 534 ;
535 [label="resprate_apache <= 48.5\ngini = 0.03\nsamples = 109\nvalue = [176, 3]\nclass = [", fillcolor="#e5833c"] ;
534 -> 535 ;
536 [label="arf_apache <= 0.5\ngini = 0.01\nsamples = 99\nvalue = [165, 1]\nclass = [", fillcolor="#e5823a"] ;
535 -> 536 ;
537 [label="gini = 0.0\nsamples = 87\nvalue = [146, 0]\nclass = [", fillcolor="#e58139"] ;
536 -> 537 ;
538 [label="d1_calcium_max <= 8.2\ngini = 0.09\nsamples = 12\nvalue = [19, 1]\nclass = [", fillcolor="#e68843"] ;
536 -> 538 ;
539 [label="bun_apache <= 32.5\ngini = 0.38\nsamples = 3\nvalue = [3, 1]\nclass = [", fillcolor="#eeab7b"] ;
538 -> 539 ;
540 [label="gini = 0.0\nsamples = 1\nvalue = [0, 1]\nclass = 0", fillcolor="#399de5"] ;
539 -> 540 ;
541 [label="gini = 0.0\nsamples = 2\nvalue = [3, 0]\nclass = [", fillcolor="#e58139"] ;
539 -> 541 ;
542 [label="gini = 0.0\nsamples = 9\nvalue = [16, 0]\nclass = [", fillcolor="#e58139"] ;
538 -> 542 ;
543 [label="d1_resprate_max <= 22.5\ngini = 0.26\nsamples = 10\nvalue = [11, 2]\nclass = [", fillcolor="#ea985d"] ;
535 -> 543 ;
544 [label="gini = 0.0\nsamples = 2\nvalue = [0, 2]\nclass = 0", fillcolor="#399de5"] ;
543 -> 544 ;
545 [label="gini = 0.0\nsamples = 8\nvalue = [11, 0]\nclass = [", fillcolor="#e58139"] ;
543 -> 545 ;
546 [label="d1_bilirubin_min <= 0.6\ngini = 0.5\nsamples = 2\nvalue = [1, 1]\nclass = [", fillcolor="#ffffff"] ;
534 -> 546 ;
547 [label="gini = 0.0\nsamples = 1\nvalue = [1, 0]\nclass = [", fillcolor="#e58139"] ;
546 -> 547 ;
548 [label="gini = 0.0\nsamples = 1\nvalue = [0, 1]\nclass = 0", fillcolor="#399de5"] ;
546 -> 548 ;
549 [label="gini = 0.0\nsamples = 1\nvalue = [0, 1]\nclass = 0", fillcolor="#399de5"] ;
509 -> 549 ;
550 [label="h1_sysbp_max <= 119.5\ngini = 0.5\nsamples = 132\nvalue = [93, 109]\nclass = 0", fillcolor="#e2f1fb"] ;
444 -> 550 ;
551 [label="d1_creatinine_min <= 2.59\ngini = 0.38\nsamples = 53\nvalue = [57, 20]\nclass = [", fillcolor="#eead7e"] ;
550 -> 551 ;
552 [label="d1_platelets_min <= 321.0\ngini = 0.18\nsamples = 34\nvalue = [46, 5]\nclass = [", fillcolor="#e88f4f"] ;
551 -> 552 ;
553 [label="d1_diasbp_invasive_min <= 34.5\ngini = 0.15\nsamples = 33\nvalue = [46, 4]\nclass = [", fillcolor="#e78c4a"] ;
552 -> 553 ;
554 [label="d1_inr_min <= 1.49\ngini = 0.5\nsamples = 5\nvalue = [3, 3]\nclass = [", fillcolor="#ffffff"] ;
553 -> 554 ;
555 [label="gini = 0.0\nsamples = 3\nvalue = [0, 3]\nclass = 0", fillcolor="#399de5"] ;
554 -> 555 ;
556 [label="gini = 0.0\nsamples = 2\nvalue = [3, 0]\nclass = [", fillcolor="#e58139"] ;
554 -> 556 ;
557 [label="resprate_apache <= 8.0\ngini = 0.04\nsamples = 28\nvalue = [43, 1]\nclass = [", fillcolor="#e6843e"] ;
553 -> 557 ;
558 [label="d1_hematocrit_max <= 35.35\ngini = 0.44\nsamples = 2\nvalue = [2, 1]\nclass = [", fillcolor="#f2c09c"] ;
557 -> 558 ;
559 [label="gini = 0.0\nsamples = 1\nvalue = [0, 1]\nclass = 0", fillcolor="#399de5"] ;
558 -> 559 ;
560 [label="gini = 0.0\nsamples = 1\nvalue = [2, 0]\nclass = [", fillcolor="#e58139"] ;
558 -> 560 ;
561 [label="gini = 0.0\nsamples = 26\nvalue = [41, 0]\nclass = [", fillcolor="#e58139"] ;
557 -> 561 ;
562 [label="gini = 0.0\nsamples = 1\nvalue = [0, 1]\nclass = 0", fillcolor="#399de5"] ;
552 -> 562 ;
563 [label="d1_heartrate_min <= 58.5\ngini = 0.49\nsamples = 19\nvalue = [11, 15]\nclass = 0", fillcolor="#cae5f8"] ;
551 -> 563 ;
564 [label="gini = 0.0\nsamples = 4\nvalue = [6, 0]\nclass = [", fillcolor="#e58139"] ;
563 -> 564 ;
565 [label="h1_sysbp_min <= 105.5\ngini = 0.38\nsamples = 15\nvalue = [5, 15]\nclass = 0", fillcolor="#7bbeee"] ;
563 -> 565 ;
566 [label="apache_3j_diagnosis <= 207.02\ngini = 0.21\nsamples = 12\nvalue = [2, 15]\nclass = 0", fillcolor="#53aae8"] ;
565 -> 566 ;
567 [label="gini = 0.0\nsamples = 2\nvalue = [2, 0]\nclass = [", fillcolor="#e58139"] ;
566 -> 567 ;
568 [label="gini = 0.0\nsamples = 10\nvalue = [0, 15]\nclass = 0", fillcolor="#399de5"] ;
566 -> 568 ;
569 [label="gini = 0.0\nsamples = 3\nvalue = [3, 0]\nclass = [", fillcolor="#e58139"] ;
565 -> 569 ;
570 [label="d1_glucose_min <= 68.5\ngini = 0.41\nsamples = 79\nvalue = [36, 89]\nclass = 0", fillcolor="#89c5f0"] ;
550 -> 570 ;
571 [label="h1_temp_max <= 35.2\ngini = 0.47\nsamples = 12\nvalue = [15, 9]\nclass = [", fillcolor="#f5cdb0"] ;
570 -> 571 ;
572 [label="hospital_admit_source <= 9.5\ngini = 0.3\nsamples = 3\nvalue = [2, 9]\nclass = 0", fillcolor="#65b3eb"] ;
571 -> 572 ;
573 [label="gini = 0.0\nsamples = 2\nvalue = [0, 9]\nclass = 0", fillcolor="#399de5"] ;
572 -> 573 ;
574 [label="gini = 0.0\nsamples = 1\nvalue = [2, 0]\nclass = [", fillcolor="#e58139"] ;
572 -> 574 ;
575 [label="gini = 0.0\nsamples = 9\nvalue = [13, 0]\nclass = [", fillcolor="#e58139"] ;
571 -> 575 ;
576 [label="d1_sysbp_invasive_max <= 162.0\ngini = 0.33\nsamples = 67\nvalue = [21, 80]\nclass = 0", fillcolor="#6db7ec"] ;
570 -> 576 ;
577 [label="d1_sodium_min <= 151.0\ngini = 0.26\nsamples = 60\nvalue = [14, 77]\nclass = 0", fillcolor="#5dafea"] ;
576 -> 577 ;
578 [label="pao2_apache <= 87.95\ngini = 0.2\nsamples = 58\nvalue = [10, 77]\nclass = 0", fillcolor="#53aae8"] ;
577 -> 578 ;
579 [label="bilirubin_apache <= 0.86\ngini = 0.5\nsamples = 6\nvalue = [4, 4]\nclass = [", fillcolor="#ffffff"] ;
578 -> 579 ;
580 [label="gini = 0.0\nsamples = 2\nvalue = [0, 4]\nclass = 0", fillcolor="#399de5"] ;
579 -> 580 ;
581 [label="gini = 0.0\nsamples = 4\nvalue = [4, 0]\nclass = [", fillcolor="#e58139"] ;
579 -> 581 ;
582 [label="d1_platelets_max <= 515.5\ngini = 0.14\nsamples = 52\nvalue = [6, 73]\nclass = 0", fillcolor="#49a5e7"] ;
578 -> 582 ;
583 [label="d1_diasbp_min <= 69.0\ngini = 0.12\nsamples = 51\nvalue = [5, 73]\nclass = 0", fillcolor="#47a4e7"] ;
582 -> 583 ;
584 [label="glucose_apache <= 240.5\ngini = 0.1\nsamples = 50\nvalue = [4, 73]\nclass = 0", fillcolor="#44a2e6"] ;
583 -> 584 ;
585 [label="h1_resprate_min <= 10.5\ngini = 0.25\nsamples = 17\nvalue = [4, 23]\nclass = 0", fillcolor="#5baeea"] ;
584 -> 585 ;
586 [label="gini = 0.0\nsamples = 1\nvalue = [1, 0]\nclass = [", fillcolor="#e58139"] ;
585 -> 586 ;
587 [label="d1_bilirubin_max <= 1.0\ngini = 0.2\nsamples = 16\nvalue = [3, 23]\nclass = 0", fillcolor="#53aae8"] ;
585 -> 587 ;
588 [label="gini = 0.0\nsamples = 2\nvalue = [2, 0]\nclass = [", fillcolor="#e58139"] ;
587 -> 588 ;
589 [label="h1_diasbp_min <= 49.5\ngini = 0.08\nsamples = 14\nvalue = [1, 23]\nclass = 0", fillcolor="#42a1e6"] ;
587 -> 589 ;
590 [label="d1_calcium_max <= 7.95\ngini = 0.44\nsamples = 2\nvalue = [1, 2]\nclass = 0", fillcolor="#9ccef2"] ;
589 -> 590 ;
591 [label="gini = 0.0\nsamples = 1\nvalue = [1, 0]\nclass = [", fillcolor="#e58139"] ;
590 -> 591 ;
592 [label="gini = 0.0\nsamples = 1\nvalue = [0, 2]\nclass = 0", fillcolor="#399de5"] ;
590 -> 592 ;
593 [label="gini = 0.0\nsamples = 12\nvalue = [0, 21]\nclass = 0", fillcolor="#399de5"] ;
589 -> 593 ;
594 [label="gini = 0.0\nsamples = 33\nvalue = [0, 50]\nclass = 0", fillcolor="#399de5"] ;
584 -> 594 ;
595 [label="gini = 0.0\nsamples = 1\nvalue = [1, 0]\nclass = [", fillcolor="#e58139"] ;
583 -> 595 ;
596 [label="gini = 0.0\nsamples = 1\nvalue = [1, 0]\nclass = [", fillcolor="#e58139"] ;
582 -> 596 ;
597 [label="gini = 0.0\nsamples = 2\nvalue = [4, 0]\nclass = [", fillcolor="#e58139"] ;
577 -> 597 ;
598 [label="glucose_apache <= 255.5\ngini = 0.42\nsamples = 7\nvalue = [7, 3]\nclass = [", fillcolor="#f0b78e"] ;
576 -> 598 ;
599 [label="gini = 0.0\nsamples = 2\nvalue = [0, 2]\nclass = 0", fillcolor="#399de5"] ;
598 -> 599 ;
600 [label="h1_heartrate_min <= 69.0\ngini = 0.22\nsamples = 5\nvalue = [7, 1]\nclass = [", fillcolor="#e99355"] ;
598 -> 600 ;
601 [label="gini = 0.0\nsamples = 1\nvalue = [0, 1]\nclass = 0", fillcolor="#399de5"] ;
600 -> 601 ;
602 [label="gini = 0.0\nsamples = 4\nvalue = [7, 0]\nclass = [", fillcolor="#e58139"] ;
600 -> 602 ;
603 [label="gini = 0.0\nsamples = 3\nvalue = [0, 8]\nclass = 0", fillcolor="#399de5"] ;
443 -> 603 ;
604 [label="bilirubin_apache <= 0.41\ngini = 0.4\nsamples = 3673\nvalue = [4195, 1615]\nclass = [", fillcolor="#efb285"] ;
0 -> 604 [labeldistance=2.5, labelangle=-45, headlabel="False"] ;
605 [label="d1_wbc_min <= 14.9\ngini = 0.45\nsamples = 377\nvalue = [409, 218]\nclass = [", fillcolor="#f3c4a3"] ;
604 -> 605 ;
606 [label="h1_diasbp_invasive_min <= 63.5\ngini = 0.43\nsamples = 310\nvalue = [350, 156]\nclass = [", fillcolor="#f1b991"] ;
605 -> 606 ;
607 [label="glucose_apache <= 227.0\ngini = 0.44\nsamples = 302\nvalue = [329, 156]\nclass = [", fillcolor="#f1bd97"] ;
606 -> 607 ;
608 [label="d1_spo2_min <= 53.5\ngini = 0.36\nsamples = 243\nvalue = [297, 90]\nclass = [", fillcolor="#eda775"] ;
607 -> 608 ;
609 [label="d1_mbp_noninvasive_min <= 44.0\ngini = 0.36\nsamples = 7\nvalue = [3, 10]\nclass = 0", fillcolor="#74baed"] ;
608 -> 609 ;
610 [label="gini = 0.0\nsamples = 1\nvalue = [2, 0]\nclass = [", fillcolor="#e58139"] ;
609 -> 610 ;
611 [label="ventilated_apache <= 0.5\ngini = 0.17\nsamples = 6\nvalue = [1, 10]\nclass = 0", fillcolor="#4da7e8"] ;
609 -> 611 ;
612 [label="gini = 0.0\nsamples = 5\nvalue = [0, 10]\nclass = 0", fillcolor="#399de5"] ;
611 -> 612 ;
613 [label="gini = 0.0\nsamples = 1\nvalue = [1, 0]\nclass = [", fillcolor="#e58139"] ;
611 -> 613 ;
614 [label="temp_apache <= 38.15\ngini = 0.34\nsamples = 236\nvalue = [294, 80]\nclass = [", fillcolor="#eca36f"] ;
608 -> 614 ;
615 [label="h1_mbp_noninvasive_min <= 59.5\ngini = 0.32\nsamples = 231\nvalue = [293, 73]\nclass = [", fillcolor="#eba06a"] ;
614 -> 615 ;
616 [label="d1_diasbp_noninvasive_max <= 73.5\ngini = 0.49\nsamples = 31\nvalue = [29, 22]\nclass = [", fillcolor="#f9e1cf"] ;
615 -> 616 ;
617 [label="gini = 0.0\nsamples = 8\nvalue = [10, 0]\nclass = [", fillcolor="#e58139"] ;
616 -> 617 ;
618 [label="h1_diasbp_noninvasive_min <= 49.5\ngini = 0.5\nsamples = 23\nvalue = [19, 22]\nclass = 0", fillcolor="#e4f2fb"] ;
616 -> 618 ;
619 [label="h1_spo2_min <= 94.5\ngini = 0.49\nsamples = 20\nvalue = [19, 14]\nclass = [", fillcolor="#f8decb"] ;
618 -> 619 ;
620 [label="h1_spo2_max <= 95.5\ngini = 0.46\nsamples = 13\nvalue = [8, 14]\nclass = 0", fillcolor="#aad5f4"] ;
619 -> 620 ;
621 [label="gini = 0.0\nsamples = 3\nvalue = [5, 0]\nclass = [", fillcolor="#e58139"] ;
620 -> 621 ;
622 [label="d1_lactate_max <= 0.8\ngini = 0.29\nsamples = 10\nvalue = [3, 14]\nclass = 0", fillcolor="#63b2eb"] ;
620 -> 622 ;
623 [label="gini = 0.0\nsamples = 2\nvalue = [3, 0]\nclass = [", fillcolor="#e58139"] ;
622 -> 623 ;
624 [label="gini = 0.0\nsamples = 8\nvalue = [0, 14]\nclass = 0", fillcolor="#399de5"] ;
622 -> 624 ;
625 [label="gini = 0.0\nsamples = 7\nvalue = [11, 0]\nclass = [", fillcolor="#e58139"] ;
619 -> 625 ;
626 [label="gini = 0.0\nsamples = 3\nvalue = [0, 8]\nclass = 0", fillcolor="#399de5"] ;
618 -> 626 ;
627 [label="h1_pao2fio2ratio_min <= 206.58\ngini = 0.27\nsamples = 200\nvalue = [264, 51]\nclass = [", fillcolor="#ea995f"] ;
615 -> 627 ;
628 [label="h1_sysbp_noninvasive_min <= 131.5\ngini = 0.49\nsamples = 10\nvalue = [6, 8]\nclass = 0", fillcolor="#cee6f8"] ;
627 -> 628 ;
629 [label="h1_bilirubin_min <= 0.3\ngini = 0.24\nsamples = 6\nvalue = [6, 1]\nclass = [", fillcolor="#e9965a"] ;
628 -> 629 ;
630 [label="gini = 0.0\nsamples = 1\nvalue = [0, 1]\nclass = 0", fillcolor="#399de5"] ;
629 -> 630 ;
631 [label="gini = 0.0\nsamples = 5\nvalue = [6, 0]\nclass = [", fillcolor="#e58139"] ;
629 -> 631 ;
632 [label="gini = 0.0\nsamples = 4\nvalue = [0, 7]\nclass = 0", fillcolor="#399de5"] ;
628 -> 632 ;
633 [label="h1_glucose_min <= 162.0\ngini = 0.24\nsamples = 190\nvalue = [258, 43]\nclass = [", fillcolor="#e9965a"] ;
627 -> 633 ;
634 [label="paco2_for_ph_apache <= 31.45\ngini = 0.2\nsamples = 172\nvalue = [241, 30]\nclass = [", fillcolor="#e89152"] ;
633 -> 634 ;
635 [label="albumin_apache <= 2.8\ngini = 0.5\nsamples = 5\nvalue = [3, 3]\nclass = [", fillcolor="#ffffff"] ;
634 -> 635 ;
636 [label="gini = 0.0\nsamples = 2\nvalue = [0, 3]\nclass = 0", fillcolor="#399de5"] ;
635 -> 636 ;
637 [label="gini = 0.0\nsamples = 3\nvalue = [3, 0]\nclass = [", fillcolor="#e58139"] ;
635 -> 637 ;
638 [label="heart_rate_apache <= 36.0\ngini = 0.18\nsamples = 167\nvalue = [238, 27]\nclass = [", fillcolor="#e88f4f"] ;
634 -> 638 ;
639 [label="gini = 0.0\nsamples = 1\nvalue = [0, 2]\nclass = 0", fillcolor="#399de5"] ;
638 -> 639 ;
640 [label="hospital_admit_source <= 11.5\ngini = 0.17\nsamples = 166\nvalue = [238, 25]\nclass = [", fillcolor="#e88e4e"] ;
638 -> 640 ;
641 [label="d1_heartrate_min <= 78.5\ngini = 0.11\nsamples = 118\nvalue = [177, 11]\nclass = [", fillcolor="#e78945"] ;
640 -> 641 ;
642 [label="d1_hemaglobin_min <= 15.25\ngini = 0.06\nsamples = 83\nvalue = [127, 4]\nclass = [", fillcolor="#e6853f"] ;
641 -> 642 ;
643 [label="h1_sodium_min <= 142.5\ngini = 0.05\nsamples = 81\nvalue = [126, 3]\nclass = [", fillcolor="#e6843e"] ;
642 -> 643 ;
644 [label="d1_sodium_min <= 131.0\ngini = 0.03\nsamples = 79\nvalue = [123, 2]\nclass = [", fillcolor="#e5833c"] ;
643 -> 644 ;
645 [label="d1_resprate_min <= 16.0\ngini = 0.32\nsamples = 4\nvalue = [4, 1]\nclass = [", fillcolor="#eca06a"] ;
644 -> 645 ;
646 [label="gini = 0.0\nsamples = 3\nvalue = [4, 0]\nclass = [", fillcolor="#e58139"] ;
645 -> 646 ;
647 [label="gini = 0.0\nsamples = 1\nvalue = [0, 1]\nclass = 0", fillcolor="#399de5"] ;
645 -> 647 ;
648 [label="d1_sysbp_max <= 139.5\ngini = 0.02\nsamples = 75\nvalue = [119, 1]\nclass = [", fillcolor="#e5823b"] ;
644 -> 648 ;
649 [label="wbc_apache <= 6.15\ngini = 0.05\nsamples = 22\nvalue = [35, 1]\nclass = [", fillcolor="#e6853f"] ;
648 -> 649 ;
650 [label="d1_wbc_min <= 5.3\ngini = 0.28\nsamples = 4\nvalue = [5, 1]\nclass = [", fillcolor="#ea9a61"] ;
649 -> 650 ;
651 [label="gini = 0.0\nsamples = 3\nvalue = [5, 0]\nclass = [", fillcolor="#e58139"] ;
650 -> 651 ;
652 [label="gini = 0.0\nsamples = 1\nvalue = [0, 1]\nclass = 0", fillcolor="#399de5"] ;
650 -> 652 ;
653 [label="gini = 0.0\nsamples = 18\nvalue = [30, 0]\nclass = [", fillcolor="#e58139"] ;
649 -> 653 ;
654 [label="gini = 0.0\nsamples = 53\nvalue = [84, 0]\nclass = [", fillcolor="#e58139"] ;
648 -> 654 ;
655 [label="hematocrit_apache <= 29.85\ngini = 0.38\nsamples = 2\nvalue = [3, 1]\nclass = [", fillcolor="#eeab7b"] ;
643 -> 655 ;
656 [label="gini = 0.0\nsamples = 1\nvalue = [3, 0]\nclass = [", fillcolor="#e58139"] ;
655 -> 656 ;
657 [label="gini = 0.0\nsamples = 1\nvalue = [0, 1]\nclass = 0", fillcolor="#399de5"] ;
655 -> 657 ;
658 [label="d1_diasbp_min <= 54.0\ngini = 0.5\nsamples = 2\nvalue = [1, 1]\nclass = [", fillcolor="#ffffff"] ;
642 -> 658 ;
659 [label="gini = 0.0\nsamples = 1\nvalue = [0, 1]\nclass = 0", fillcolor="#399de5"] ;
658 -> 659 ;
660 [label="gini = 0.0\nsamples = 1\nvalue = [1, 0]\nclass = [", fillcolor="#e58139"] ;
658 -> 660 ;
661 [label="d1_spo2_min <= 86.5\ngini = 0.22\nsamples = 35\nvalue = [50, 7]\nclass = [", fillcolor="#e99355"] ;
641 -> 661 ;
662 [label="icu_id <= 394.5\ngini = 0.49\nsamples = 7\nvalue = [5, 4]\nclass = [", fillcolor="#fae6d7"] ;
661 -> 662 ;
663 [label="gini = 0.0\nsamples = 4\nvalue = [5, 0]\nclass = [", fillcolor="#e58139"] ;
662 -> 663 ;
664 [label="gini = 0.0\nsamples = 3\nvalue = [0, 4]\nclass = 0", fillcolor="#399de5"] ;
662 -> 664 ;
665 [label="h1_heartrate_max <= 89.35\ngini = 0.12\nsamples = 28\nvalue = [45, 3]\nclass = [", fillcolor="#e78946"] ;
661 -> 665 ;
666 [label="age <= 43.5\ngini = 0.5\nsamples = 2\nvalue = [2, 2]\nclass = [", fillcolor="#ffffff"] ;
665 -> 666 ;
667 [label="gini = 0.0\nsamples = 1\nvalue = [2, 0]\nclass = [", fillcolor="#e58139"] ;
666 -> 667 ;
668 [label="gini = 0.0\nsamples = 1\nvalue = [0, 2]\nclass = 0", fillcolor="#399de5"] ;
666 -> 668 ;
669 [label="d1_glucose_max <= 216.0\ngini = 0.04\nsamples = 26\nvalue = [43, 1]\nclass = [", fillcolor="#e6843e"] ;
665 -> 669 ;
670 [label="gini = 0.0\nsamples = 25\nvalue = [43, 0]\nclass = [", fillcolor="#e58139"] ;
669 -> 670 ;
671 [label="gini = 0.0\nsamples = 1\nvalue = [0, 1]\nclass = 0", fillcolor="#399de5"] ;
669 -> 671 ;
672 [label="d1_hematocrit_min <= 20.55\ngini = 0.3\nsamples = 48\nvalue = [61, 14]\nclass = [", fillcolor="#eb9e66"] ;
640 -> 672 ;
673 [label="gini = 0.0\nsamples = 1\nvalue = [0, 3]\nclass = 0", fillcolor="#399de5"] ;
672 -> 673 ;
674 [label="icu_id <= 310.0\ngini = 0.26\nsamples = 47\nvalue = [61, 11]\nclass = [", fillcolor="#ea985d"] ;
672 -> 674 ;
675 [label="gini = 0.0\nsamples = 2\nvalue = [0, 3]\nclass = 0", fillcolor="#399de5"] ;
674 -> 675 ;
676 [label="hematocrit_apache <= 41.85\ngini = 0.2\nsamples = 45\nvalue = [61, 8]\nclass = [", fillcolor="#e89253"] ;
674 -> 676 ;
677 [label="d1_resprate_max <= 51.5\ngini = 0.14\nsamples = 42\nvalue = [60, 5]\nclass = [", fillcolor="#e78c49"] ;
676 -> 677 ;
678 [label="h1_mbp_invasive_max <= 97.96\ngini = 0.06\nsamples = 39\nvalue = [59, 2]\nclass = [", fillcolor="#e68540"] ;
677 -> 678 ;
679 [label="h1_bilirubin_max <= 0.25\ngini = 0.03\nsamples = 38\nvalue = [59, 1]\nclass = [", fillcolor="#e5833c"] ;
678 -> 679 ;
680 [label="gini = 0.0\nsamples = 1\nvalue = [0, 1]\nclass = 0", fillcolor="#399de5"] ;
679 -> 680 ;
681 [label="gini = 0.0\nsamples = 37\nvalue = [59, 0]\nclass = [", fillcolor="#e58139"] ;
679 -> 681 ;
682 [label="gini = 0.0\nsamples = 1\nvalue = [0, 1]\nclass = 0", fillcolor="#399de5"] ;
678 -> 682 ;
683 [label="h1_inr_max <= 1.45\ngini = 0.38\nsamples = 3\nvalue = [1, 3]\nclass = 0", fillcolor="#7bbeee"] ;
677 -> 683 ;
684 [label="gini = 0.0\nsamples = 1\nvalue = [1, 0]\nclass = [", fillcolor="#e58139"] ;
683 -> 684 ;
685 [label="gini = 0.0\nsamples = 2\nvalue = [0, 3]\nclass = 0", fillcolor="#399de5"] ;
683 -> 685 ;
686 [label="d1_spo2_max <= 99.5\ngini = 0.38\nsamples = 3\nvalue = [1, 3]\nclass = 0", fillcolor="#7bbeee"] ;
676 -> 686 ;
687 [label="gini = 0.0\nsamples = 2\nvalue = [0, 3]\nclass = 0", fillcolor="#399de5"] ;
686 -> 687 ;
688 [label="gini = 0.0\nsamples = 1\nvalue = [1, 0]\nclass = [", fillcolor="#e58139"] ;
686 -> 688 ;
689 [label="d1_hematocrit_max <= 34.29\ngini = 0.49\nsamples = 18\nvalue = [17, 13]\nclass = [", fillcolor="#f9e1d0"] ;
633 -> 689 ;
690 [label="gini = 0.0\nsamples = 5\nvalue = [0, 6]\nclass = 0", fillcolor="#399de5"] ;
689 -> 690 ;
691 [label="h1_sysbp_invasive_min <= 123.49\ngini = 0.41\nsamples = 13\nvalue = [17, 7]\nclass = [", fillcolor="#f0b58b"] ;
689 -> 691 ;
692 [label="d1_glucose_max <= 261.5\ngini = 0.26\nsamples = 11\nvalue = [17, 3]\nclass = [", fillcolor="#ea975c"] ;
691 -> 692 ;
693 [label="h1_mbp_noninvasive_min <= 64.5\ngini = 0.1\nsamples = 10\nvalue = [17, 1]\nclass = [", fillcolor="#e78845"] ;
692 -> 693 ;
694 [label="gini = 0.0\nsamples = 1\nvalue = [0, 1]\nclass = 0", fillcolor="#399de5"] ;
693 -> 694 ;
695 [label="gini = 0.0\nsamples = 9\nvalue = [17, 0]\nclass = [", fillcolor="#e58139"] ;
693 -> 695 ;
696 [label="gini = 0.0\nsamples = 1\nvalue = [0, 2]\nclass = 0", fillcolor="#399de5"] ;
692 -> 696 ;
697 [label="gini = 0.0\nsamples = 2\nvalue = [0, 4]\nclass = 0", fillcolor="#399de5"] ;
691 -> 697 ;
698 [label="hospital_id <= 86.0\ngini = 0.22\nsamples = 5\nvalue = [1, 7]\nclass = 0", fillcolor="#55abe9"] ;
614 -> 698 ;
699 [label="gini = 0.0\nsamples = 4\nvalue = [0, 7]\nclass = 0", fillcolor="#399de5"] ;
698 -> 699 ;
700 [label="gini = 0.0\nsamples = 1\nvalue = [1, 0]\nclass = [", fillcolor="#e58139"] ;
698 -> 700 ;
701 [label="h1_sysbp_noninvasive_min <= 135.0\ngini = 0.44\nsamples = 59\nvalue = [32, 66]\nclass = 0", fillcolor="#99cdf2"] ;
607 -> 701 ;
702 [label="d1_pao2fio2ratio_max <= 225.71\ngini = 0.29\nsamples = 40\nvalue = [11, 51]\nclass = 0", fillcolor="#64b2eb"] ;
701 -> 702 ;
703 [label="gini = 0.0\nsamples = 2\nvalue = [3, 0]\nclass = [", fillcolor="#e58139"] ;
702 -> 703 ;
704 [label="h1_bun_max <= 17.0\ngini = 0.23\nsamples = 38\nvalue = [8, 51]\nclass = 0", fillcolor="#58ace9"] ;
702 -> 704 ;
705 [label="gini = 0.0\nsamples = 2\nvalue = [3, 0]\nclass = [", fillcolor="#e58139"] ;
704 -> 705 ;
706 [label="hematocrit_apache <= 46.35\ngini = 0.16\nsamples = 36\nvalue = [5, 51]\nclass = 0", fillcolor="#4ca7e8"] ;
704 -> 706 ;
707 [label="d1_pao2fio2ratio_max <= 425.0\ngini = 0.1\nsamples = 35\nvalue = [3, 51]\nclass = 0", fillcolor="#45a3e7"] ;
706 -> 707 ;
708 [label="h1_arterial_pco2_max <= 49.05\ngini = 0.04\nsamples = 33\nvalue = [1, 51]\nclass = 0", fillcolor="#3d9fe6"] ;
707 -> 708 ;
709 [label="gini = 0.0\nsamples = 31\nvalue = [0, 50]\nclass = 0", fillcolor="#399de5"] ;
708 -> 709 ;
710 [label="h1_resprate_max <= 28.5\ngini = 0.5\nsamples = 2\nvalue = [1, 1]\nclass = [", fillcolor="#ffffff"] ;
708 -> 710 ;
711 [label="gini = 0.0\nsamples = 1\nvalue = [1, 0]\nclass = [", fillcolor="#e58139"] ;
710 -> 711 ;
712 [label="gini = 0.0\nsamples = 1\nvalue = [0, 1]\nclass = 0", fillcolor="#399de5"] ;
710 -> 712 ;
713 [label="gini = 0.0\nsamples = 2\nvalue = [2, 0]\nclass = [", fillcolor="#e58139"] ;
707 -> 713 ;
714 [label="gini = 0.0\nsamples = 1\nvalue = [2, 0]\nclass = [", fillcolor="#e58139"] ;
706 -> 714 ;
715 [label="d1_glucose_max <= 309.5\ngini = 0.49\nsamples = 19\nvalue = [21, 15]\nclass = [", fillcolor="#f8dbc6"] ;
701 -> 715 ;
716 [label="d1_sysbp_min <= 93.5\ngini = 0.45\nsamples = 11\nvalue = [7, 13]\nclass = 0", fillcolor="#a4d2f3"] ;
715 -> 716 ;
717 [label="gini = 0.0\nsamples = 2\nvalue = [6, 0]\nclass = [", fillcolor="#e58139"] ;
716 -> 717 ;
718 [label="h1_diasbp_min <= 98.0\ngini = 0.13\nsamples = 9\nvalue = [1, 13]\nclass = 0", fillcolor="#48a5e7"] ;
716 -> 718 ;
719 [label="gini = 0.0\nsamples = 8\nvalue = [0, 13]\nclass = 0", fillcolor="#399de5"] ;
718 -> 719 ;
720 [label="gini = 0.0\nsamples = 1\nvalue = [1, 0]\nclass = [", fillcolor="#e58139"] ;
718 -> 720 ;
721 [label="d1_hco3_max <= 18.5\ngini = 0.22\nsamples = 8\nvalue = [14, 2]\nclass = [", fillcolor="#e99355"] ;
715 -> 721 ;
722 [label="gini = 0.0\nsamples = 1\nvalue = [0, 1]\nclass = 0", fillcolor="#399de5"] ;
721 -> 722 ;
723 [label="h1_diasbp_noninvasive_max <= 112.0\ngini = 0.12\nsamples = 7\nvalue = [14, 1]\nclass = [", fillcolor="#e78a47"] ;
721 -> 723 ;
724 [label="gini = 0.0\nsamples = 6\nvalue = [14, 0]\nclass = [", fillcolor="#e58139"] ;
723 -> 724 ;
725 [label="gini = 0.0\nsamples = 1\nvalue = [0, 1]\nclass = 0", fillcolor="#399de5"] ;
723 -> 725 ;
726 [label="gini = 0.0\nsamples = 8\nvalue = [21, 0]\nclass = [", fillcolor="#e58139"] ;
606 -> 726 ;
727 [label="d1_diasbp_min <= 53.5\ngini = 0.5\nsamples = 67\nvalue = [59, 62]\nclass = 0", fillcolor="#f5fafe"] ;
605 -> 727 ;
728 [label="d1_glucose_min <= 153.0\ngini = 0.48\nsamples = 48\nvalue = [34, 53]\nclass = 0", fillcolor="#b8dcf6"] ;
727 -> 728 ;
729 [label="d1_diasbp_noninvasive_min <= 44.5\ngini = 0.5\nsamples = 38\nvalue = [34, 32]\nclass = [", fillcolor="#fdf8f3"] ;
728 -> 729 ;
730 [label="d1_diasbp_invasive_max <= 78.58\ngini = 0.38\nsamples = 20\nvalue = [24, 8]\nclass = [", fillcolor="#eeab7b"] ;
729 -> 730 ;
731 [label="d1_albumin_min <= 3.25\ngini = 0.4\nsamples = 7\nvalue = [3, 8]\nclass = 0", fillcolor="#83c2ef"] ;
730 -> 731 ;
732 [label="gini = 0.0\nsamples = 5\nvalue = [0, 8]\nclass = 0", fillcolor="#399de5"] ;
731 -> 732 ;
733 [label="gini = 0.0\nsamples = 2\nvalue = [3, 0]\nclass = [", fillcolor="#e58139"] ;
731 -> 733 ;
734 [label="gini = 0.0\nsamples = 13\nvalue = [21, 0]\nclass = [", fillcolor="#e58139"] ;
730 -> 734 ;
735 [label="h1_glucose_min <= 169.0\ngini = 0.42\nsamples = 18\nvalue = [10, 24]\nclass = 0", fillcolor="#8bc6f0"] ;
729 -> 735 ;
736 [label="d1_resprate_min <= 12.0\ngini = 0.48\nsamples = 11\nvalue = [10, 7]\nclass = [", fillcolor="#f7d9c4"] ;
735 -> 736 ;
737 [label="d1_creatinine_min <= 0.67\ngini = 0.24\nsamples = 5\nvalue = [1, 6]\nclass = 0", fillcolor="#5aade9"] ;
736 -> 737 ;
738 [label="gini = 0.0\nsamples = 1\nvalue = [1, 0]\nclass = [", fillcolor="#e58139"] ;
737 -> 738 ;
739 [label="gini = 0.0\nsamples = 4\nvalue = [0, 6]\nclass = 0", fillcolor="#399de5"] ;
737 -> 739 ;
740 [label="icu_id <= 384.0\ngini = 0.18\nsamples = 6\nvalue = [9, 1]\nclass = [", fillcolor="#e88f4f"] ;
736 -> 740 ;
741 [label="gini = 0.0\nsamples = 1\nvalue = [0, 1]\nclass = 0", fillcolor="#399de5"] ;
740 -> 741 ;
742 [label="gini = 0.0\nsamples = 5\nvalue = [9, 0]\nclass = [", fillcolor="#e58139"] ;
740 -> 742 ;
743 [label="gini = 0.0\nsamples = 7\nvalue = [0, 17]\nclass = 0", fillcolor="#399de5"] ;
735 -> 743 ;
744 [label="gini = 0.0\nsamples = 10\nvalue = [0, 21]\nclass = 0", fillcolor="#399de5"] ;
728 -> 744 ;
745 [label="h1_calcium_max <= 8.54\ngini = 0.39\nsamples = 19\nvalue = [25, 9]\nclass = [", fillcolor="#eeae80"] ;
727 -> 745 ;
746 [label="d1_platelets_min <= 264.5\ngini = 0.48\nsamples = 15\nvalue = [13, 9]\nclass = [", fillcolor="#f7d8c2"] ;
745 -> 746 ;
747 [label="h1_mbp_max <= 89.1\ngini = 0.49\nsamples = 10\nvalue = [7, 9]\nclass = 0", fillcolor="#d3e9f9"] ;
746 -> 747 ;
748 [label="gini = 0.0\nsamples = 3\nvalue = [0, 7]\nclass = 0", fillcolor="#399de5"] ;
747 -> 748 ;
749 [label="d1_wbc_max <= 21.05\ngini = 0.35\nsamples = 7\nvalue = [7, 2]\nclass = [", fillcolor="#eca572"] ;
747 -> 749 ;
750 [label="temp_apache <= 36.25\ngini = 0.5\nsamples = 4\nvalue = [2, 2]\nclass = [", fillcolor="#ffffff"] ;
749 -> 750 ;
751 [label="gini = 0.0\nsamples = 2\nvalue = [0, 2]\nclass = 0", fillcolor="#399de5"] ;
750 -> 751 ;
752 [label="gini = 0.0\nsamples = 2\nvalue = [2, 0]\nclass = [", fillcolor="#e58139"] ;
750 -> 752 ;
753 [label="gini = 0.0\nsamples = 3\nvalue = [5, 0]\nclass = [", fillcolor="#e58139"] ;
749 -> 753 ;
754 [label="gini = 0.0\nsamples = 5\nvalue = [6, 0]\nclass = [", fillcolor="#e58139"] ;
746 -> 754 ;
755 [label="gini = 0.0\nsamples = 4\nvalue = [12, 0]\nclass = [", fillcolor="#e58139"] ;
745 -> 755 ;
756 [label="glucose_apache <= 161.5\ngini = 0.39\nsamples = 3296\nvalue = [3786, 1397]\nclass = [", fillcolor="#efaf82"] ;
604 -> 756 ;
757 [label="h1_diasbp_invasive_min <= 50.5\ngini = 0.25\nsamples = 2002\nvalue = [2664, 447]\nclass = [", fillcolor="#e9965a"] ;
756 -> 757 ;
758 [label="h1_glucose_max <= 172.0\ngini = 0.43\nsamples = 122\nvalue = [131, 60]\nclass = [", fillcolor="#f1bb94"] ;
757 -> 758 ;
759 [label="ph_apache <= 7.36\ngini = 0.39\nsamples = 112\nvalue = [127, 47]\nclass = [", fillcolor="#efb082"] ;
758 -> 759 ;
760 [label="h1_mbp_max <= 83.5\ngini = 0.31\nsamples = 86\nvalue = [109, 26]\nclass = [", fillcolor="#eb9f68"] ;
759 -> 760 ;
761 [label="d1_sysbp_invasive_max <= 152.5\ngini = 0.41\nsamples = 52\nvalue = [56, 23]\nclass = [", fillcolor="#f0b58a"] ;
760 -> 761 ;
762 [label="gender <= 0.5\ngini = 0.26\nsamples = 32\nvalue = [43, 8]\nclass = [", fillcolor="#ea985e"] ;
761 -> 762 ;
763 [label="d1_hematocrit_min <= 34.5\ngini = 0.49\nsamples = 13\nvalue = [9, 7]\nclass = [", fillcolor="#f9e3d3"] ;
762 -> 763 ;
764 [label="d1_spo2_min <= 93.5\ngini = 0.38\nsamples = 10\nvalue = [9, 3]\nclass = [", fillcolor="#eeab7b"] ;
763 -> 764 ;
765 [label="height <= 146.05\ngini = 0.18\nsamples = 8\nvalue = [9, 1]\nclass = [", fillcolor="#e88f4f"] ;
764 -> 765 ;
766 [label="gini = 0.0\nsamples = 1\nvalue = [0, 1]\nclass = 0", fillcolor="#399de5"] ;
765 -> 766 ;
767 [label="gini = 0.0\nsamples = 7\nvalue = [9, 0]\nclass = [", fillcolor="#e58139"] ;
765 -> 767 ;
768 [label="gini = 0.0\nsamples = 2\nvalue = [0, 2]\nclass = 0", fillcolor="#399de5"] ;
764 -> 768 ;
769 [label="gini = 0.0\nsamples = 3\nvalue = [0, 4]\nclass = 0", fillcolor="#399de5"] ;
763 -> 769 ;
770 [label="h1_mbp_invasive_min <= 67.5\ngini = 0.06\nsamples = 19\nvalue = [34, 1]\nclass = [", fillcolor="#e6853f"] ;
762 -> 770 ;
771 [label="gini = 0.0\nsamples = 15\nvalue = [24, 0]\nclass = [", fillcolor="#e58139"] ;
770 -> 771 ;
772 [label="h1_spo2_min <= 92.5\ngini = 0.17\nsamples = 4\nvalue = [10, 1]\nclass = [", fillcolor="#e88e4d"] ;
770 -> 772 ;
773 [label="gini = 0.0\nsamples = 1\nvalue = [0, 1]\nclass = 0", fillcolor="#399de5"] ;
772 -> 773 ;
774 [label="gini = 0.0\nsamples = 3\nvalue = [10, 0]\nclass = [", fillcolor="#e58139"] ;
772 -> 774 ;
775 [label="age <= 79.5\ngini = 0.5\nsamples = 20\nvalue = [13, 15]\nclass = 0", fillcolor="#e5f2fc"] ;
761 -> 775 ;
776 [label="d1_diasbp_noninvasive_min <= 45.5\ngini = 0.45\nsamples = 16\nvalue = [8, 15]\nclass = 0", fillcolor="#a3d1f3"] ;
775 -> 776 ;
777 [label="heart_rate_apache <= 101.5\ngini = 0.38\nsamples = 6\nvalue = [6, 2]\nclass = [", fillcolor="#eeab7b"] ;
776 -> 777 ;
778 [label="gini = 0.0\nsamples = 4\nvalue = [6, 0]\nclass = [", fillcolor="#e58139"] ;
777 -> 778 ;
779 [label="gini = 0.0\nsamples = 2\nvalue = [0, 2]\nclass = 0", fillcolor="#399de5"] ;
777 -> 779 ;
780 [label="d1_resprate_max <= 31.0\ngini = 0.23\nsamples = 10\nvalue = [2, 13]\nclass = 0", fillcolor="#57ace9"] ;
776 -> 780 ;
781 [label="gini = 0.0\nsamples = 7\nvalue = [0, 12]\nclass = 0", fillcolor="#399de5"] ;
780 -> 781 ;
782 [label="h1_arterial_po2_max <= 115.83\ngini = 0.44\nsamples = 3\nvalue = [2, 1]\nclass = [", fillcolor="#f2c09c"] ;
780 -> 782 ;
783 [label="gini = 0.0\nsamples = 1\nvalue = [0, 1]\nclass = 0", fillcolor="#399de5"] ;
782 -> 783 ;
784 [label="gini = 0.0\nsamples = 2\nvalue = [2, 0]\nclass = [", fillcolor="#e58139"] ;
782 -> 784 ;
785 [label="gini = 0.0\nsamples = 4\nvalue = [5, 0]\nclass = [", fillcolor="#e58139"] ;
775 -> 785 ;
786 [label="urineoutput_apache <= 908.58\ngini = 0.1\nsamples = 34\nvalue = [53, 3]\nclass = [", fillcolor="#e68844"] ;
760 -> 786 ;
787 [label="d1_potassium_min <= 3.75\ngini = 0.48\nsamples = 4\nvalue = [2, 3]\nclass = 0", fillcolor="#bddef6"] ;
786 -> 787 ;
788 [label="wbc_apache <= 15.09\ngini = 0.44\nsamples = 3\nvalue = [2, 1]\nclass = [", fillcolor="#f2c09c"] ;
787 -> 788 ;
789 [label="gini = 0.0\nsamples = 2\nvalue = [2, 0]\nclass = [", fillcolor="#e58139"] ;
788 -> 789 ;
790 [label="gini = 0.0\nsamples = 1\nvalue = [0, 1]\nclass = 0", fillcolor="#399de5"] ;
788 -> 790 ;
791 [label="gini = 0.0\nsamples = 1\nvalue = [0, 2]\nclass = 0", fillcolor="#399de5"] ;
787 -> 791 ;
792 [label="gini = 0.0\nsamples = 30\nvalue = [51, 0]\nclass = [", fillcolor="#e58139"] ;
786 -> 792 ;
793 [label="h1_inr_min <= 1.24\ngini = 0.5\nsamples = 26\nvalue = [18, 21]\nclass = 0", fillcolor="#e3f1fb"] ;
759 -> 793 ;
794 [label="h1_arterial_ph_min <= 7.38\ngini = 0.3\nsamples = 9\nvalue = [9, 2]\nclass = [", fillcolor="#eb9d65"] ;
793 -> 794 ;
795 [label="h1_diasbp_max <= 57.0\ngini = 0.44\nsamples = 3\nvalue = [1, 2]\nclass = 0", fillcolor="#9ccef2"] ;
794 -> 795 ;
796 [label="gini = 0.0\nsamples = 2\nvalue = [0, 2]\nclass = 0", fillcolor="#399de5"] ;
795 -> 796 ;
797 [label="gini = 0.0\nsamples = 1\nvalue = [1, 0]\nclass = [", fillcolor="#e58139"] ;
795 -> 797 ;
798 [label="gini = 0.0\nsamples = 6\nvalue = [8, 0]\nclass = [", fillcolor="#e58139"] ;
794 -> 798 ;
799 [label="d1_mbp_noninvasive_max <= 75.0\ngini = 0.44\nsamples = 17\nvalue = [9, 19]\nclass = 0", fillcolor="#97cbf1"] ;
793 -> 799 ;
800 [label="gini = 0.0\nsamples = 3\nvalue = [4, 0]\nclass = [", fillcolor="#e58139"] ;
799 -> 800 ;
801 [label="d1_glucose_max <= 128.0\ngini = 0.33\nsamples = 14\nvalue = [5, 19]\nclass = 0", fillcolor="#6db7ec"] ;
799 -> 801 ;
802 [label="h1_sysbp_min <= 109.0\ngini = 0.32\nsamples = 4\nvalue = [4, 1]\nclass = [", fillcolor="#eca06a"] ;
801 -> 802 ;
803 [label="gini = 0.0\nsamples = 1\nvalue = [0, 1]\nclass = 0", fillcolor="#399de5"] ;
802 -> 803 ;
804 [label="gini = 0.0\nsamples = 3\nvalue = [4, 0]\nclass = [", fillcolor="#e58139"] ;
802 -> 804 ;
805 [label="hospital_id <= 39.5\ngini = 0.1\nsamples = 10\nvalue = [1, 18]\nclass = 0", fillcolor="#44a2e6"] ;
801 -> 805 ;
806 [label="gini = 0.0\nsamples = 1\nvalue = [1, 0]\nclass = [", fillcolor="#e58139"] ;
805 -> 806 ;
807 [label="gini = 0.0\nsamples = 9\nvalue = [0, 18]\nclass = 0", fillcolor="#399de5"] ;
805 -> 807 ;
808 [label="bun_apache <= 22.5\ngini = 0.36\nsamples = 10\nvalue = [4, 13]\nclass = 0", fillcolor="#76bbed"] ;
758 -> 808 ;
809 [label="d1_calcium_min <= 7.8\ngini = 0.32\nsamples = 4\nvalue = [4, 1]\nclass = [", fillcolor="#eca06a"] ;
808 -> 809 ;
810 [label="gini = 0.0\nsamples = 1\nvalue = [0, 1]\nclass = 0", fillcolor="#399de5"] ;
809 -> 810 ;
811 [label="gini = 0.0\nsamples = 3\nvalue = [4, 0]\nclass = [", fillcolor="#e58139"] ;
809 -> 811 ;
812 [label="gini = 0.0\nsamples = 6\nvalue = [0, 12]\nclass = 0", fillcolor="#399de5"] ;
808 -> 812 ;
813 [label="d1_creatinine_min <= 1.2\ngini = 0.23\nsamples = 1880\nvalue = [2533, 387]\nclass = [", fillcolor="#e99457"] ;
757 -> 813 ;
814 [label="h1_bilirubin_max <= 13.8\ngini = 0.16\nsamples = 1074\nvalue = [1512, 144]\nclass = [", fillcolor="#e78d4c"] ;
813 -> 814 ;
815 [label="h1_lactate_max <= 0.6\ngini = 0.16\nsamples = 1073\nvalue = [1512, 142]\nclass = [", fillcolor="#e78d4c"] ;
814 -> 815 ;
816 [label="gini = 0.0\nsamples = 1\nvalue = [0, 2]\nclass = 0", fillcolor="#399de5"] ;
815 -> 816 ;
817 [label="d1_arterial_ph_min <= 7.24\ngini = 0.16\nsamples = 1072\nvalue = [1512, 140]\nclass = [", fillcolor="#e78d4b"] ;
815 -> 817 ;
818 [label="h1_pao2fio2ratio_min <= 149.25\ngini = 0.45\nsamples = 19\nvalue = [19, 10]\nclass = [", fillcolor="#f3c3a1"] ;
817 -> 818 ;
819 [label="h1_diasbp_min <= 61.5\ngini = 0.38\nsamples = 4\nvalue = [2, 6]\nclass = 0", fillcolor="#7bbeee"] ;
818 -> 819 ;
820 [label="gini = 0.0\nsamples = 2\nvalue = [0, 6]\nclass = 0", fillcolor="#399de5"] ;
819 -> 820 ;
821 [label="gini = 0.0\nsamples = 2\nvalue = [2, 0]\nclass = [", fillcolor="#e58139"] ;
819 -> 821 ;
822 [label="d1_hco3_min <= 29.5\ngini = 0.31\nsamples = 15\nvalue = [17, 4]\nclass = [", fillcolor="#eb9f68"] ;
818 -> 822 ;
823 [label="gini = 0.0\nsamples = 10\nvalue = [15, 0]\nclass = [", fillcolor="#e58139"] ;
822 -> 823 ;
824 [label="d1_hco3_min <= 34.5\ngini = 0.44\nsamples = 5\nvalue = [2, 4]\nclass = 0", fillcolor="#9ccef2"] ;
822 -> 824 ;
825 [label="gini = 0.0\nsamples = 2\nvalue = [0, 3]\nclass = 0", fillcolor="#399de5"] ;
824 -> 825 ;
826 [label="d1_heartrate_min <= 86.5\ngini = 0.44\nsamples = 3\nvalue = [2, 1]\nclass = [", fillcolor="#f2c09c"] ;
824 -> 826 ;
827 [label="gini = 0.0\nsamples = 2\nvalue = [2, 0]\nclass = [", fillcolor="#e58139"] ;
826 -> 827 ;
828 [label="gini = 0.0\nsamples = 1\nvalue = [0, 1]\nclass = 0", fillcolor="#399de5"] ;
826 -> 828 ;
829 [label="d1_sysbp_invasive_min <= 83.5\ngini = 0.15\nsamples = 1053\nvalue = [1493, 130]\nclass = [", fillcolor="#e78c4a"] ;
817 -> 829 ;
830 [label="d1_creatinine_min <= 0.82\ngini = 0.35\nsamples = 40\nvalue = [44, 13]\nclass = [", fillcolor="#eda674"] ;
829 -> 830 ;
831 [label="encounter_id <= 172259.5\ngini = 0.17\nsamples = 24\nvalue = [29, 3]\nclass = [", fillcolor="#e88e4d"] ;
830 -> 831 ;
832 [label="gini = 0.0\nsamples = 2\nvalue = [0, 2]\nclass = 0", fillcolor="#399de5"] ;
831 -> 832 ;
833 [label="h1_resprate_max <= 12.5\ngini = 0.06\nsamples = 22\nvalue = [29, 1]\nclass = [", fillcolor="#e68540"] ;
831 -> 833 ;
834 [label="h1_mbp_noninvasive_min <= 85.0\ngini = 0.5\nsamples = 2\nvalue = [1, 1]\nclass = [", fillcolor="#ffffff"] ;
833 -> 834 ;
835 [label="gini = 0.0\nsamples = 1\nvalue = [1, 0]\nclass = [", fillcolor="#e58139"] ;
834 -> 835 ;
836 [label="gini = 0.0\nsamples = 1\nvalue = [0, 1]\nclass = 0", fillcolor="#399de5"] ;
834 -> 836 ;
837 [label="gini = 0.0\nsamples = 20\nvalue = [28, 0]\nclass = [", fillcolor="#e58139"] ;
833 -> 837 ;
838 [label="d1_calcium_min <= 7.75\ngini = 0.48\nsamples = 16\nvalue = [15, 10]\nclass = [", fillcolor="#f6d5bd"] ;
830 -> 838 ;
839 [label="gini = 0.0\nsamples = 6\nvalue = [9, 0]\nclass = [", fillcolor="#e58139"] ;
838 -> 839 ;
840 [label="d1_diasbp_min <= 54.0\ngini = 0.47\nsamples = 10\nvalue = [6, 10]\nclass = 0", fillcolor="#b0d8f5"] ;
838 -> 840 ;
841 [label="d1_potassium_max <= 4.75\ngini = 0.17\nsamples = 8\nvalue = [1, 10]\nclass = 0", fillcolor="#4da7e8"] ;
840 -> 841 ;
842 [label="gini = 0.0\nsamples = 7\nvalue = [0, 10]\nclass = 0", fillcolor="#399de5"] ;
841 -> 842 ;
843 [label="gini = 0.0\nsamples = 1\nvalue = [1, 0]\nclass = [", fillcolor="#e58139"] ;
841 -> 843 ;
844 [label="gini = 0.0\nsamples = 2\nvalue = [5, 0]\nclass = [", fillcolor="#e58139"] ;
840 -> 844 ;
845 [label="age <= 49.5\ngini = 0.14\nsamples = 1013\nvalue = [1449, 117]\nclass = [", fillcolor="#e78b49"] ;
829 -> 845 ;
846 [label="h1_wbc_max <= 25.07\ngini = 0.03\nsamples = 272\nvalue = [433, 6]\nclass = [", fillcolor="#e5833c"] ;
845 -> 846 ;
847 [label="bun_apache <= 27.0\ngini = 0.02\nsamples = 270\nvalue = [431, 5]\nclass = [", fillcolor="#e5823b"] ;
846 -> 847 ;
848 [label="encounter_id <= 274759.5\ngini = 0.02\nsamples = 265\nvalue = [426, 4]\nclass = [", fillcolor="#e5823b"] ;
847 -> 848 ;
849 [label="d1_lactate_max <= 0.75\ngini = 0.01\nsamples = 258\nvalue = [415, 3]\nclass = [", fillcolor="#e5823a"] ;
848 -> 849 ;
850 [label="apache_3j_diagnosis <= 160.04\ngini = 0.2\nsamples = 6\nvalue = [8, 1]\nclass = [", fillcolor="#e89152"] ;
849 -> 850 ;
851 [label="gini = 0.0\nsamples = 1\nvalue = [0, 1]\nclass = 0", fillcolor="#399de5"] ;
850 -> 851 ;
852 [label="gini = 0.0\nsamples = 5\nvalue = [8, 0]\nclass = [", fillcolor="#e58139"] ;
850 -> 852 ;
853 [label="d1_potassium_min <= 4.15\ngini = 0.01\nsamples = 252\nvalue = [407, 2]\nclass = [", fillcolor="#e5823a"] ;
849 -> 853 ;
854 [label="gini = 0.0\nsamples = 195\nvalue = [302, 0]\nclass = [", fillcolor="#e58139"] ;
853 -> 854 ;
855 [label="bmi <= 45.56\ngini = 0.04\nsamples = 57\nvalue = [105, 2]\nclass = [", fillcolor="#e5833d"] ;
853 -> 855 ;
856 [label="bilirubin_apache <= 1.21\ngini = 0.02\nsamples = 53\nvalue = [100, 1]\nclass = [", fillcolor="#e5823b"] ;
855 -> 856 ;
857 [label="d1_mbp_noninvasive_min <= 67.5\ngini = 0.12\nsamples = 11\nvalue = [14, 1]\nclass = [", fillcolor="#e78a47"] ;
856 -> 857 ;
858 [label="d1_platelets_min <= 100.5\ngini = 0.38\nsamples = 4\nvalue = [3, 1]\nclass = [", fillcolor="#eeab7b"] ;
857 -> 858 ;
859 [label="gini = 0.0\nsamples = 1\nvalue = [0, 1]\nclass = 0", fillcolor="#399de5"] ;
858 -> 859 ;
860 [label="gini = 0.0\nsamples = 3\nvalue = [3, 0]\nclass = [", fillcolor="#e58139"] ;
858 -> 860 ;
861 [label="gini = 0.0\nsamples = 7\nvalue = [11, 0]\nclass = [", fillcolor="#e58139"] ;
857 -> 861 ;
862 [label="gini = 0.0\nsamples = 42\nvalue = [86, 0]\nclass = [", fillcolor="#e58139"] ;
856 -> 862 ;
863 [label="d1_sysbp_min <= 113.0\ngini = 0.28\nsamples = 4\nvalue = [5, 1]\nclass = [", fillcolor="#ea9a61"] ;
855 -> 863 ;
864 [label="gini = 0.0\nsamples = 3\nvalue = [5, 0]\nclass = [", fillcolor="#e58139"] ;
863 -> 864 ;
865 [label="gini = 0.0\nsamples = 1\nvalue = [0, 1]\nclass = 0", fillcolor="#399de5"] ;
863 -> 865 ;
